1899 128
the 0.22055477 0.0316704 0.33028373 0.16726692 -0.12750497 -0.02296168 -0.016914304 -0.406746 -0.31147853 -0.15631303 -0.036779784 0.13294402 0.10375443 0.007354234 -0.009793562 0.25416157 -0.23372936 0.022814428 0.016326088 -0.15529303 -0.39978078 0.11714556 -0.19457866 0.13626367 -0.14634477 0.2538478 -0.17227685 -0.10297685 0.16195545 0.19486097 -0.19051203 0.03792015 -0.21809965 0.34636843 -0.15733014 -0.28522822 -0.41396973 -0.2372919 0.24183156 -0.26945958 -0.0041496567 -0.16860771 0.027962133 -0.327017 0.08658643 -0.15370658 0.1475269 0.2030668 0.15030165 0.05371272 -0.06481882 0.14684582 0.23816077 -0.09716002 -0.20739782 0.18054278 -0.0312555 -0.13045566 0.29884964 -0.041095458 -0.001989007 0.020453759 -0.29730043 -0.07278374 0.19237226 0.10542736 0.1761448 0.21080662 -0.06524895 0.05245968 0.0066293324 0.23109731 0.09161951 -0.14738287 0.09047181 -0.014776135 0.048563857 -0.026779704 0.12263887 0.1432215 -0.10516336 -0.10537667 -0.032501724 0.29032362 0.08872713 0.14751682 -0.060888644 -0.108539104 0.0017364799 -0.012643714 -0.1373583 -0.05665349 -0.02333876 0.22267947 -0.24930984 0.0025543969 -0.0024135155 -0.010103876 -0.16109705 0.04038467 0.16872472 0.15477636 0.03262878 -0.1061131 -0.055264775 -0.033092853 0.17593102 -0.035478827 0.0327273 0.17661837 0.056856718 0.114148505 0.12279492 -0.0381399 -0.17854796 0.0039422335 -0.068382785 -0.12719761 0.24570099 0.115824066 -0.07701282 0.22397874 -0.03015125 0.15282445 0.082635745 0.13265108 0.09072606 -0.14841828
i -0.20407806 0.04157745 -0.18126209 0.047305327 -0.05146454 -0.061987624 -0.05143974 -0.18500064 -0.3113243 -0.118642084 -0.08387588 -0.042395443 0.27143663 -0.121793926 -0.040489856 0.17089136 -0.2809775 0.1478731 0.13797837 -0.1592347 -0.3227679 0.12264356 -0.19629812 0.2822816 -0.12758133 -0.20970486 0.061302252 0.16008507 0.17365281 0.39479527 0.10086596 0.18323074 0.18587685 0.3007815 -0.17826535 0.04383525 -0.40978053 0.19550055 -0.06445094 -0.100203544 -0.3611297 -0.40882343 -0.0059137875 0.1556506 -0.22638473 -0.09387536 0.23687112 0.1492094 0.12501271 0.23226734 -0.23553488 -0.16901466 0.04603096 -0.17072567 -0.004998358 0.17738588 -0.03470857 -0.37365314 0.2868829 -0.5494282 0.10574983 -0.15200637 -0.18863672 0.18403716 0.11983664 -0.00018700371 0.005226076 -0.22438787 -0.014202049 0.24795063 -0.0043597245 0.21422067 0.30533275 0.1634564 -0.14932671 -0.19470756 -0.27618772 0.3715786 -0.38702822 0.28342736 -0.062444758 0.14756528 0.08906036 0.1282296 0.2354525 -0.0044336566 -0.34986627 0.02966302 0.2495714 0.039346546 0.25020537 0.19479497 -0.035233922 -0.09283202 0.21612945 0.038765606 -0.08646797 -0.13650826 -0.16637702 0.016110005 0.047107864 0.22512981 0.40457848 0.08730383 -0.10831008 -0.022950647 -0.070581205 -0.2795595 0.22105922 -0.28062972 0.04640706 0.117566496 0.15247294 0.14850928 -0.17289922 0.08423586 0.066907205 0.12341071 0.11571981 -0.4580573 0.3391726 0.3464123 -0.25501186 0.00803287 0.39940426 -0.0976842 -0.14626417 -0.24500555
to 0.26606563 0.05225156 0.021815127 0.34698287 -0.1444793 -0.13080995 -0.10452093 -0.23095068 0.00020568963 -0.21664082 0.04201307 0.10533333 0.04844082 0.1276986 -0.16547352 0.012070118 -0.33690786 -0.30588067 0.15575342 0.15582816 -0.13708293 0.0546931 -0.20298475 0.104546726 -0.15282808 -0.16507527 -0.07548263 0.24469401 0.01434395 0.20185512 -0.17691979 0.036701854 -0.024386346 0.16449878 -0.029793357 -0.24905047 -0.48094752 -0.051679693 0.13964973 -0.073650844 -0.28929847 -0.46740147 0.124331966 0.1183573 -0.32469672 -0.1579562 0.33474532 0.379017 -0.03750326 -0.0029412878 -0.0031287842 -0.18326034 0.082527 -0.036180567 -0.09758448 -0.2222782 -0.0022245126 -0.4140749 0.5500889 -0.14565337 0.011300879 -0.112402536 -0.24717695 0.022343332 -0.14490561 -0.013261444 -0.25912035 0.13598718 -0.010377284 0.0627847 0.23553596 0.22377257 0.035354022 0.18284523 0.08101655 0.0634069 0.08478333 0.25792488 -0.31168705 0.26818523 -0.26824242 -0.14086486 0.21034491 0.43760327 -0.1948038 0.094962865 -0.15956038 0.3290134 0.25077978 0.14186735 0.18560003 -0.23005977 -0.004733311 -0.0931908 -0.049122095 -0.046389025 -0.33579397 0.19118066 -0.00781598 -0.019350009 -0.045829095 0.21886826 -0.020026384 0.28325197 -0.18946296 -0.11928804 0.2179593 -0.19111753 0.0655385 -0.055157118 -0.061057214 0.16460969 -0.02366186 -0.10603899 -0.3221561 0.048909165 -0.14124183 -0.012458603 -0.11850301 0.009592095 0.07388915 0.21306191 0.018112749 -0.04642257 0.24263754 0.06741443 0.10231046 0.059408225
a -0.055256315 0.19725873 0.21525002 0.22911604 0.12414515 0.068991594 0.05000516 -0.10521442 -0.021834837 -0.31018052 -0.2486514 0.035995927 0.17663251 -0.20074664 -0.1054684 0.25289497 -0.41068265 -0.030820457 -0.009553545 -0.24986517 -0.50013775 0.04677846 -0.10474937 0.108108476 0.22146381 0.40185997 -0.123298615 0.042470306 0.20434509 0.3528309 0.083024144 0.0072863125 -0.18029863 0.07572342 -0.28339562 -0.033539105 -0.26105344 -0.1337247 0.019326761 -0.3146678 -0.41996825 -0.22840151 0.21153514 -0.2982093 -0.09393189 4.71141e-08 0.10356245 0.21911334 0.06366572 0.013617229 -0.15189865 -0.17534308 -0.034115456 -0.089914225 -0.17304055 -0.15850179 -0.21466063 -0.06409853 0.13736258 -0.38406104 -0.026081564 -0.15201461 -0.15517183 -0.09769709 -0.0070058424 0.1483677 0.18370523 0.18328069 -0.13384727 0.022069532 -0.09466229 -0.08338956 0.4496651 -0.19254015 0.06381278 0.010499605 -0.08672553 -0.10942324 0.049008057 0.33652523 -0.31100845 0.104823865 -0.034394093 0.44339678 -0.19934629 0.16120617 -0.39229944 -0.21315584 0.2935437 0.08389639 0.14660081 -0.043874543 -0.025241513 0.01960655 -0.23595887 0.009623781 -0.19970767 0.26308686 -0.13907681 0.005203853 -0.08115429 -0.045422036 -0.17928119 -0.020320825 0.03302954 0.04546204 0.12603657 -0.038678855 0.10943741 -0.11866257 0.048331205 0.07022438 -0.17348179 -0.10257988 0.11977682 -0.01077022 -0.094647005 -0.20749761 0.012205787 -0.02558402 -0.049477413 0.11099347 0.10185708 -0.15008204 0.19158877 -0.0689737 -0.001933353 0.025175778
you 0.33347368 -0.06764452 0.1263733 -0.0030068504 -0.082263395 -0.25148007 -0.16417965 -0.21874416 -0.04445955 -0.19353463 -0.09963404 0.06250274 0.20064145 -0.2655144 -0.18072666 0.15540817 -0.58013636 -0.01799943 -0.22051331 0.057829574 -0.3782926 0.0709232 -0.20697598 0.05296476 -0.039098933 -0.25585493 -0.02107175 0.012631639 0.16051675 0.41965342 -0.22642054 -0.17807956 0.30811626 0.33949006 -0.094574414 -0.11339768 -0.61463714 -0.046896584 0.17053568 -0.17842908 -0.36310354 -0.3021281 0.056712512 0.09748768 -0.39135462 0.16839957 0.33520636 -0.031784937 -0.0061830683 0.10903197 0.14418554 -0.16977274 0.17501661 -0.06543593 0.2057727 -0.030504487 -0.019882305 -0.21856567 0.093325496 -0.3733499 0.1305791 -0.294376 0.17663595 -0.01705071 -0.008750538 -0.00096459896 0.08667973 -0.09765368 -0.10444427 0.16675699 -0.13226365 0.0024837693 0.048065383 0.04856714 0.18754455 -0.24752645 0.044989347 -0.0018511023 -0.36187702 0.0685987 0.015943563 0.13399047 0.14854127 0.02898742 -0.08637118 0.10080067 -0.10408141 0.010569949 0.35819685 0.00025704908 0.21133518 -0.5499246 -0.16052186 -0.41371757 -0.0928807 -0.090719625 -0.18678153 0.023015521 0.14159764 -0.08202202 -0.12649757 -0.00906927 -0.07358487 0.26230922 0.1273597 -0.0026856617 0.15528645 -0.15967144 0.33764327 -0.055080567 -0.17471465 -0.010285852 0.15876968 0.05418235 0.04485891 0.0038863444 -0.09958085 0.10113552 0.29336172 -0.07631495 0.11084585 0.28168473 0.034530975 0.049526855 0.17217924 -0.12726368 0.20300624 0.1074895
and 0.17131189 0.059776768 -0.0035385154 0.29367763 -0.10865061 -0.05249036 0.12234495 -0.07437947 -0.045410857 -0.3460474 -0.1556528 0.255955 0.11038925 0.08150468 0.01068363 0.19513606 -0.17567024 -0.06320423 -0.046673674 -0.070014715 -0.1890753 0.013984971 -0.12754554 0.040075872 -0.09759834 0.18765241 -0.0875702 -0.03616576 0.02434006 0.15749393 0.06960723 -0.06992618 -0.113043234 0.20765916 -0.084346555 -0.26070243 -0.11362558 -0.19383712 0.049927432 -0.07033691 -0.12525104 -0.36884505 -0.0030318992 -0.055125665 -0.23887637 0.0391443 0.112182915 0.2971834 0.110111356 -0.057251766 -0.02361335 -0.17966245 0.11664059 -0.14297433 -0.08353398 -0.03243499 -0.048978023 -0.16212717 0.24801572 -0.17720458 0.093335815 -0.17208952 -0.33921322 0.008169325 -0.06000692 0.17243119 -0.09246617 -0.0073767304 0.011443184 -0.024875876 0.021586204 0.17157686 0.20012216 -0.10952135 0.1758517 -0.12599477 0.12911962 0.24293934 -0.34074602 0.18370791 -0.1776589 -0.018492581 -0.004391866 0.38456938 -0.00968232 0.06524777 -0.14264406 0.13130717 0.1750378 0.0027241916 0.18230842 -0.16266677 -0.2194631 0.050472848 -0.27648872 0.04804968 -0.25409743 0.10718631 -0.10509547 0.0627229 -0.2506162 0.10542126 -0.086387075 0.21085733 -0.18439691 0.09690267 0.1580893 -0.014150248 0.0060199792 0.02534453 -0.02681492 0.025743125 -0.029341329 0.06413946 -0.080953866 0.17149113 0.109672554 -0.17043024 0.09899643 0.15458329 0.21451421 0.13692105 -0.08964095 -0.05835889 0.15629531 0.053827893 0.0028161812 0.02185339
it 0.049432844 -0.032759797 -0.0061723115 0.202749 -0.19937769 -0.17648044 -0.013053608 -0.02107874 -0.03778736 -0.038529735 -0.24125291 -0.037391596 0.18360922 -0.20226471 0.0107888505 0.23143011 -0.3001332 0.11152008 -0.17324272 -0.26684782 -0.21046951 0.22441292 -0.26652554 -0.022176735 -0.039207816 0.06103557 -0.06296444 0.18805774 0.10937008 0.16587266 0.12379052 0.03221766 -0.0930858 0.23718813 -0.28894883 0.0069377 -0.38837716 -0.1263771 0.080325745 -0.18029378 0.12827091 -0.1130161 0.11158661 0.03739693 0.047942292 0.06664921 0.3435644 0.008386632 0.12168684 0.17075624 -0.17963679 -0.069677755 -0.013191132 -0.1941247 -0.001532265 0.1667019 0.06496755 -0.0299822 0.30670935 -0.47289675 0.09125392 0.011406283 -0.13268524 0.047860414 0.02307316 0.18035987 0.014408169 -0.14968911 0.11738396 0.14651857 0.04983488 -0.02949045 0.1990467 -0.24884272 -0.030564163 -0.06193365 -0.1821448 0.09444515 -0.33116138 0.3640387 -0.0044073 0.16412687 -0.004203356 0.42170733 -0.08038913 -0.0032212061 -0.19577022 -0.19198924 0.14382407 0.17290914 0.09103063 0.03706472 -0.007145912 -0.087413184 -0.26531 -0.2122261 -0.13132527 0.17629935 -0.24143541 0.09194018 0.23824535 -0.012739279 0.095054455 0.015949532 -0.27297667 0.30405807 0.11440357 0.11677772 -0.0009007494 -0.008920662 0.004399866 0.084762 0.1121972 0.04224361 0.034331102 0.15619051 -0.10455417 -0.014044765 0.018737862 0.078062005 0.14225274 0.16092716 -0.15948716 0.109565035 0.36100072 -0.17868204 -0.00383781 -0.16148922
<s> 0.106086664 -0.0080638025 0.017561402 0.22195639 -0.07719798 -0.047254186 -0.03664864 -0.15546355 -0.15188776 -0.17764658 -0.10317137 0.13765067 0.06909272 -0.05139112 -0.09826162 0.13698661 -0.298943 -0.042767692 -0.027349563 -0.08382289 -0.18347417 0.024418985 -0.106526874 0.072215274 -0.05949507 0.024508657 -0.09750867 -0.010859191 0.1175702 0.13457341 0.020222712 0.030509833 0.019110814 0.15910456 -0.100596145 -0.17012303 -0.31599647 -0.09923759 0.07131875 -0.11647272 -0.18669091 -0.3332632 0.008029026 0.043416444 -0.12610848 0.02077239 0.1639665 0.07867703 0.09814973 0.12584953 -0.045176167 -0.05464989 0.09992419 -0.1359079 0.063171 0.048037983 -0.070115454 -0.18322445 0.26247993 -0.2946704 0.05093522 -0.02968309 -0.15674905 0.05960894 -0.045445614 0.13389179 0.017514477 -0.021738814 0.0012899402 0.059136465 0.10207176 0.032905977 0.24828476 -0.08428541 0.0026652147 -0.08455154 -0.083156385 0.1593868 -0.2142816 0.14758456 -0.09313116 0.012424922 0.029682426 0.29099315 0.051168468 0.00891422 -0.18656036 -0.06038061 0.09287234 0.04186197 0.15828514 -0.086090475 -0.06072707 0.03271205 -0.2115745 0.03545994 -0.11956205 0.025001531 -0.10909553 -0.040152177 -0.024974074 -7.271061e-05 -0.0032914295 0.17720068 -0.1311864 0.07581349 0.06130091 -0.0955865 0.023943014 0.02275221 -0.05538338 0.15099241 0.09582057 0.06291283 -0.0425214 0.07159645 -0.0042202477 0.033028204 0.15704133 0.022908842 0.14203085 0.19203554 -0.10047769 -0.0068080607 0.25094876 -0.0380307 0.0060695265 -0.0952348
<\s> 0.12687695 -0.026852833 0.04895915 0.19527093 -0.064756915 -0.04126417 0.013506402 -0.13028722 -0.066792294 -0.13691251 -0.13489537 0.06804988 0.11030795 -0.111253396 -0.09217022 0.1394461 -0.25710106 0.011623243 -0.03943514 -0.054434773 -0.17005731 0.04611323 -0.12883405 0.05144607 -0.00940645 0.018704584 -0.023309352 0.010929947 0.10225082 0.21080013 0.005258366 0.04796236 0.0076211095 0.17292649 -0.09866577 -0.15068164 -0.354418 -0.11121073 0.09319373 -0.07289597 -0.1326068 -0.35686037 0.05627955 0.041582845 -0.04989205 0.029872721 0.18325616 0.095275976 0.085159145 0.11091563 -0.04223811 0.0019331719 0.10003381 -0.13159242 0.055585194 0.05241654 -0.050250113 -0.17070569 0.22565164 -0.275743 0.06655564 -0.08064754 -0.14467907 0.0059815305 -0.015825693 0.20047371 0.05581419 -0.04622143 -0.06482248 0.08357679 0.11146765 0.01116017 0.18477708 -0.13460487 -0.04738567 -0.0849951 -0.0661693 0.14390264 -0.18082397 0.085141666 -0.098357655 0.029992042 -0.020000322 0.31286252 0.052296784 0.037286125 -0.19868413 -0.017910935 0.13454075 0.010678232 0.14911848 -0.077985585 -0.057650827 -0.029752152 -0.29878595 -0.03132314 -0.11234143 0.033495173 -0.13194501 0.020845486 0.04551294 0.008357776 0.013758217 0.20509227 -0.14790237 0.07941762 0.08114202 -0.036259506 0.020696372 0.039930485 -0.052298598 0.12311895 0.077307954 0.015731366 -0.07312613 0.04754766 0.018766537 0.05679755 0.15539308 0.013570144 0.20227185 0.19466111 -0.139343 0.015786065 0.241811 -0.048294954 0.021920584 -0.1330751
s -0.018174244 -0.040829495 -0.08086179 0.2020274 -0.029940601 0.006480981 0.26933476 0.087948345 0.062742874 0.0779697 -0.2491412 -0.06590482 0.21322772 -0.062094394 0.05453848 0.23282437 -0.4409491 0.28513575 -0.33497074 -0.2558097 -0.26814884 0.21226598 0.020412868 -0.19703278 0.0839704 0.18854582 -0.034684956 -0.019612242 -0.05009589 0.25858337 0.008236627 0.021767968 -0.1690691 0.23469567 -0.12016299 0.005578582 -0.5201474 -0.30033422 0.016296113 -0.016587796 -0.13757667 -0.5912526 0.38494357 -0.16698565 -0.108609855 -0.15272994 0.3520761 0.17780425 0.24180326 0.2037775 -0.17155771 0.18387452 0.14576751 -0.39367276 -0.041381408 -0.0704582 -0.02781228 0.15306966 0.35236654 -0.33137295 0.03323994 -0.008600677 -0.045873087 -0.18865325 0.046602987 0.40173635 -0.050070357 0.146359 0.17027266 -0.03976709 0.23784235 0.07897602 0.17425783 -0.3163595 0.0053588757 0.06127689 0.12603596 -0.07770208 0.075918406 0.14803423 -0.04331549 0.14157379 -0.07786646 0.15503557 -0.10333513 0.28826204 0.12860316 -0.1293794 0.19064976 0.1741948 -0.086949766 0.041859567 -0.05846076 -0.057999644 -0.2970645 0.06764509 -0.15706062 0.085230984 -0.44063044 0.18095288 0.07029469 0.16695274 0.07834284 0.17711785 -0.22548842 -0.07506983 -0.09007574 -0.1028682 -0.042141844 -0.028802516 -0.07370889 0.0059661972 -0.17187336 0.06390012 0.07420226 0.106662326 -0.11449216 0.020296425 0.122342035 -0.27067822 0.18165654 0.0453458 -0.15551807 0.22142315 0.24137984 0.028858176 -0.13202842 -0.020756764
of 0.26622874 0.18126784 0.11173546 -0.08793137 -0.040059056 0.2768421 0.012862976 -0.0149662215 0.045152236 -0.38631356 -0.37462872 0.28446138 0.42190462 0.11288381 0.23296061 0.3209042 -0.15060607 -0.11815169 -0.004600344 -0.09479579 -0.2115847 0.008572855 -0.02972211 -0.11665721 0.047323413 0.22220267 -0.28576916 -0.008052697 -0.024689205 0.36679217 -0.06949527 0.040493447 -0.21061575 0.16800198 -0.10193453 -0.16688739 -0.31547967 0.017021753 0.013614352 -0.11420103 -0.16127048 -0.34151608 0.041628256 -0.34539407 0.07991413 -0.13679613 -0.2453694 0.34951898 0.33097172 -0.23449054 -0.140852 -0.07947982 0.10913916 -0.29684564 0.24447262 -0.07291479 -0.14729655 -0.09633714 0.2349329 -0.18945052 0.05819023 -0.007973062 -0.24540195 -0.19095394 -0.004616279 0.2470384 -0.058220956 0.1760086 -0.22901529 -0.0848044 0.53969944 0.11789105 0.31339568 -0.24076602 -0.10443764 -0.022831907 0.17834501 0.21689263 -0.0875871 -0.28225455 0.169949 -0.14209466 -0.3556126 0.4933619 0.059712756 0.32487836 -0.03669649 -0.10559349 0.095650524 0.16196206 0.14565547 -0.08449957 -0.21616293 -0.042892415 -0.27845445 -0.20787159 -0.019647421 0.1081666 -0.26623178 0.13526696 -0.11214382 -0.101835914 -0.26291502 0.38828787 0.18457852 0.051145785 0.02045258 0.21004328 -0.009351649 -0.103933595 0.18804982 0.09023442 -0.07371764 -0.09085887 0.19206682 0.08182037 0.035905514 -0.3161056 0.2744231 0.052558064 0.07928218 0.17555189 -0.23040208 0.028557122 0.08379452 0.051963616 -0.02724104 -0.19364016
that 0.21938331 0.080596045 -0.121904746 0.2393846 -0.10079249 -0.045215126 0.05352091 -0.18392672 -0.1085805 -0.2608108 -0.13836332 0.08071262 0.14246793 -0.18028414 -0.04941217 0.18317862 -0.31151462 0.0042428365 0.070931055 -0.11986123 -0.29343525 0.08815664 -0.14238416 0.10106684 0.016616687 -0.02830145 -0.112507045 0.029351274 0.10396482 0.18342751 -0.05817362 -0.026784718 -0.0075043663 0.2838369 -0.2345324 0.019588664 -0.29945657 0.042364135 0.10136623 -0.1516344 -0.11666493 -0.23457505 0.0631713 0.059600834 -0.052185025 -0.10473705 0.28176543 0.07025217 0.09072125 0.12854949 -0.11655779 -0.15603122 0.007726185 -0.12553567 0.03940936 0.053438984 0.0038408467 -0.13578942 0.30598646 -0.46017215 -0.03591707 -0.0633705 -0.075139195 0.065389074 -0.04208529 0.093643874 -0.08662397 -0.14271021 0.0316743 0.081115834 0.04278706 0.004378482 0.22961898 -0.11505377 0.014363659 0.02050602 -0.004997342 0.16495042 -0.32357877 0.21924958 0.021304313 0.06964841 0.01232768 0.33173937 -0.056073092 0.036595225 -0.1531234 -0.034145188 0.14316832 0.054396063 0.20518018 0.05371723 -0.08581146 0.05226996 -0.22187693 -0.12140968 -0.05322877 0.0512814 -0.17750432 -0.11447105 0.13278545 -0.013505902 0.097940564 0.10843391 -0.11405049 0.1594038 0.036335487 0.056339007 -0.016947625 -0.07926623 -0.039116018 0.030942239 0.13002765 0.070439234 -0.052486867 0.024359727 0.047386836 -0.091630965 0.11845486 -0.044269305 0.16084385 0.057128426 -0.1935497 -0.047930315 0.281029 -0.14453895 -0.001212534 -0.09443135
is -0.0011098444 -0.07678533 0.1116345 0.047929764 -0.14063762 0.07195855 -0.05734852 -0.14387763 -0.19100973 0.0090934485 -0.32867458 0.14994541 0.3670754 -0.07888374 -0.08590914 0.20814754 -0.48262298 -0.077861845 -0.25020298 -0.20148367 -0.21963455 0.15964194 -0.19047554 -0.06508719 -0.08111966 0.041828323 -0.23394279 0.09351196 0.05776504 0.35417894 -0.003897028 0.22384578 0.0020411795 0.15067546 -0.22238581 -0.0033660242 -0.5027613 -0.3349137 0.06136793 -0.053060688 -0.14415388 -0.654191 0.21221346 -0.1638444 -0.060998503 -0.05261081 0.15579808 0.02726257 -0.020489957 0.28204408 -0.21367905 0.30370292 0.07413484 -0.26648596 0.25313938 -0.08074901 -0.16944757 -0.09690055 0.44446704 -0.12157274 0.12965868 0.2137979 -0.29454777 -0.016962752 -0.028002873 0.22819611 0.20262983 0.23523414 -0.122574575 -0.0047078724 0.4024483 0.1672585 -0.018350165 -0.24420415 -0.16777608 0.0906113 -0.22227333 0.0936052 0.3289861 -0.20550849 -0.100957446 -0.08054048 -0.009248649 0.010860679 -0.0053723007 0.043361362 0.09902013 -0.11036156 0.07931829 0.06890474 0.11558081 0.08555116 -0.05499841 -0.035199065 -0.17358235 0.09474457 0.027501794 0.12910381 -0.11099802 0.24964657 0.010430514 -0.16164963 0.06770905 0.033872224 -0.2163369 -0.014523565 0.08494856 -0.09148522 0.14411081 -0.035573468 0.17409803 0.077620976 -0.03682246 0.03642759 0.0035504738 0.00918561 -0.104027696 0.0059494777 -0.013716882 -0.186118 0.05167113 -0.013444454 -0.11759812 0.1986693 0.073901795 0.08269837 -0.109987356 -0.17943667
in 0.25869066 0.051529888 0.06228456 0.004646447 -0.12910178 -0.10586163 -0.00040947663 -0.076479435 -0.27796924 -0.32195646 -0.31921002 0.27887103 0.4328669 0.069539264 0.019759 0.24449398 -0.43147367 -0.1528382 -0.11424686 0.0019961651 -0.31374866 -0.13001014 -0.30351308 0.036704738 -0.095230415 0.006049594 -0.16159567 0.08443349 0.014863718 0.33164594 -0.15347044 -0.014081756 -0.09950383 0.13042425 -0.12988472 -0.33105394 -0.4786045 -0.07871066 -0.08059383 -0.06539974 -0.20669986 -0.38172492 -0.06961181 0.007441466 -0.10355899 -0.077649206 0.1160406 0.15676713 0.023758588 -0.10605549 -0.058377344 0.041337915 0.15743826 -0.09285786 0.17650434 -0.15524623 -0.2061013 -0.056699086 0.25078404 0.11644377 0.1095874 0.016022034 -0.014964642 -0.06840455 -0.01839326 0.12909555 0.07309196 -0.04290975 -0.10233642 0.0353833 0.23386535 0.0809717 0.054841105 -0.07045955 0.00140407 -0.0848021 -0.026223367 0.15110163 -0.1444438 -0.025148934 -0.05328535 0.037382007 -0.011891885 0.23424676 0.03683516 0.038524978 -0.06116188 0.15494211 0.14166628 0.092860766 -0.032836817 -0.19693452 -0.09803212 0.041200947 -0.16222115 -0.04062869 -0.13512067 0.06762407 -0.04550628 -0.0042664735 -0.096577264 0.0008214745 -0.025717758 0.057274166 -0.05235019 -0.0030636017 0.20619701 -0.06384097 0.0028650204 0.07556915 -0.0046461797 0.052101742 0.05005884 0.09784437 0.10314742 0.09723943 0.055341855 0.06265143 0.100892864 0.13760355 0.076683596 0.041585367 -0.09035547 -0.0115122795 0.22071953 0.07167679 0.0540495 -0.1257807
we 0.007558947 -0.09282629 0.045895815 0.044172253 -0.27349386 -0.4132256 -0.12525219 -0.01813469 -0.36330026 -0.07006271 -0.057236716 0.20628451 -0.15773652 -0.17614754 -0.063602835 0.004804506 -0.5823679 -0.097745314 -0.33517766 -0.08857682 -0.23235965 0.1646324 -0.1888082 0.11771653 -0.18748492 -0.17923422 -0.035336573 0.03820002 0.2826624 0.19101095 0.061098106 -0.16328152 0.15621614 0.28150648 -0.098141745 -0.16553865 -0.44053778 -0.12560245 0.014504479 -0.23046254 -0.4380509 -0.2657201 -0.03519217 0.011119498 -0.69904566 0.18121408 0.11835036 0.07661765 0.30086806 0.1512747 0.029014872 -0.046946093 0.189842 -0.3103013 0.08685337 -0.017213777 0.09136637 -0.16435999 0.085656345 -0.3836961 0.124314636 -0.02880393 -0.15968834 0.016302824 -0.1650699 0.10861083 -0.099871516 0.0032285058 0.08464119 0.08658617 -0.10345704 0.25566 0.50549805 0.050323743 -0.08602954 0.15088981 -0.19159949 0.0387641 -0.20692304 0.29073727 -0.09042043 -0.02398805 0.2460615 0.201288 0.11853894 0.18737459 -0.27501106 -0.14097828 0.055933084 -0.10674754 0.13138297 -0.26397327 -0.11201075 -0.02975686 -0.0021331906 0.19950196 -0.25397223 0.03519687 0.013739913 -0.18329616 -0.113189325 0.11997999 0.088379234 0.043438192 0.07034266 0.0070540183 -0.004787669 -0.11548874 0.20420578 0.07472087 -0.08880039 0.07283539 0.1280756 0.09919786 -0.0485724 0.13281775 -0.06740968 -0.06704991 0.15618807 -0.02138157 0.1669481 0.5146788 0.23772423 0.16545878 0.30845195 -0.2536749 0.04350391 0.021789672
so 0.13527486 -0.060802687 -0.06403183 0.17915243 -0.19845518 -0.05090975 -0.01257484 -0.13127759 -0.11257941 -0.09722872 -0.20765282 0.18041413 0.14404309 -0.26207584 -0.06123019 0.1304638 -0.46995428 -0.09986508 -0.06041825 -0.22372417 -0.21873516 -0.05954565 -0.22950599 0.034029063 0.119544186 0.044545382 0.0042494056 -0.083748676 0.14311565 0.23583175 0.017808191 -0.20859171 0.06989425 0.15514033 -0.15580434 -0.013438949 -0.18902095 -0.14965549 0.14638121 0.0113971 -0.2273468 -0.32259038 0.019949056 0.022001794 -0.1852048 0.03482031 0.2508429 0.0968383 0.07571274 0.1788236 0.054349337 -0.023699846 0.012061285 0.029276023 0.03196673 -0.007822152 -0.09845406 -0.109968066 0.06370863 -0.3383171 0.046532393 -0.13712811 -0.08192786 -0.023202403 -0.10193459 0.32103708 -0.07177052 -0.1533727 -0.0024594397 0.078991435 0.14915472 -0.038943764 0.29576352 -0.22417967 -0.083908804 -0.014070996 -0.05019244 0.07090464 -0.17898802 0.17431355 -0.18762405 0.024119923 0.12903336 0.22029854 0.0016274184 -0.07200814 -0.14345506 -0.09939173 0.16600044 0.07597895 0.26642123 0.006303574 -0.10314712 -0.00535394 -0.2909605 0.04901578 -0.12576242 0.10517954 -0.1618803 -0.17760175 -0.08617747 0.120515585 -0.06867322 0.09819493 -0.057987913 0.11431158 0.030607836 -0.035084393 0.16093653 0.09344271 -0.14041555 0.020823851 0.10797938 0.17579947 0.04411695 -0.010503389 0.024192235 0.12549448 0.18864685 -0.08205644 0.1970299 0.22543454 -0.11088562 -0.038499586 0.3140012 -0.089374274 -0.06356047 -0.07374919
this 0.095098116 0.06918099 0.04643314 0.21312886 -0.11075431 -0.0011576393 -0.0069254464 -0.23006657 -0.105258755 -0.12141911 -0.10941507 0.20192903 0.092914656 -0.22711281 -0.12904012 0.23791638 -0.32970732 -0.087702855 -0.06312998 -0.18101908 -0.17798167 0.06644203 -0.11981162 0.13517442 -0.010380071 -0.020469071 -0.2008576 -0.07282761 0.18426493 0.30837512 0.046834532 0.06444858 0.0027852023 0.33636707 -0.06930168 0.02769095 -0.30453634 -0.13317627 0.07549799 -0.0027116525 -0.04877679 -0.13064198 0.03363692 -0.101196304 -0.06690821 -0.0351673 0.23210686 -0.069616094 0.053868767 0.30017456 -0.08220022 0.05383297 0.12472625 -0.22767307 -0.051277936 0.23576252 0.017511066 -0.2654794 0.37956005 -0.3687909 0.16045345 0.072775595 -0.25139123 0.022592878 0.1287892 0.1565945 0.21244055 0.14433731 0.007892428 -0.030763427 -0.017382339 -0.039476663 0.19095278 -0.065582216 -0.038392235 0.06959058 -0.15578741 0.12334667 0.07937994 0.11511278 -0.10916825 0.047759637 0.08810393 0.32663453 0.016606765 -0.057087168 -0.12884338 -0.1970748 0.052911486 -0.039438356 0.17249557 -0.0506134 -0.2037331 0.03201658 -0.30536634 0.019911645 -0.013893854 0.12189819 -0.2914982 -0.021810155 0.16784494 -0.019340785 -0.04340031 0.033565875 -0.10015486 0.041228123 0.030310422 -0.062203545 0.13469131 -0.12949419 0.011037376 0.21866338 0.099395506 0.064451024 -0.1272145 0.06069074 -0.17830093 -0.0919751 0.17056322 0.011916207 0.14213884 0.15909533 -0.10069743 0.042178217 0.20738287 0.016106503 0.058158137 -0.20652525
for 0.06422018 0.01451531 0.1211188 0.13278154 0.04116395 -0.015932506 0.07335216 0.030538578 -0.09710422 -0.23903686 -0.24227014 0.35826093 0.2257559 -0.029353343 -0.117884934 0.22445467 -0.3003741 -0.00018808524 -0.08768921 -0.053002432 -0.18223488 -0.11323259 -0.102486074 -0.11601458 -0.013448203 0.12140436 -0.06219886 -0.015101345 0.10847133 0.22919959 0.09433749 0.0325652 0.021905266 -0.051413607 0.0080025885 -0.28053513 -0.17774709 -0.059202798 -0.10737163 0.0026489438 -0.16792746 -0.38968122 0.009872613 0.088126965 -0.11704131 0.13934746 0.21230704 0.17606989 -0.0003620772 -0.03362429 0.02551078 -0.1044421 0.1330668 -0.07656039 0.0953077 -0.09130449 -0.19157189 -0.2385148 0.25034901 -0.21189919 0.076805666 -0.073937885 -0.21317895 0.062769935 -0.02835751 0.15829267 0.09927539 -0.081816755 -0.0722975 0.0024313524 0.20567268 0.026572052 0.22184904 -0.023716629 0.18905671 -0.113827385 -0.11077143 0.26922578 -0.34814757 0.03261629 -0.12734094 0.00056848 0.04778213 0.28302503 -0.044634 0.08611175 -0.20073198 0.20142639 0.25748277 -0.06845395 0.13195804 -0.16087946 -0.030715154 0.047336332 -0.3544251 0.06662251 -0.23445107 -0.06821603 0.109030195 0.07468105 -0.25514853 -0.18907917 -0.17731498 0.16173749 -0.26782894 0.079425216 0.048563078 -0.12177076 0.0029236276 0.12565845 -0.054368544 0.1521889 0.017332882 0.086823836 -0.0057372903 0.032971635 -0.014224316 0.08512714 0.02224259 -0.049856715 0.31825894 0.24358174 -0.11974922 -0.061275084 0.2569657 0.09135577 -0.119883336 -0.03767135
but 0.16349086 0.042369884 0.030023005 0.26215705 -0.14536385 0.077693835 0.02822893 -0.16087382 -0.15646303 -0.16943283 -0.23318084 0.1725123 0.17032743 -0.065713644 -0.033468086 0.104657106 -0.37392697 0.0203161 -0.0003262129 -0.2878476 -0.2627202 0.057795938 -0.28401378 0.08430921 0.059807543 0.04500118 -0.034099236 -0.02331103 0.119045675 0.132101 -0.018524647 -0.07619871 -0.024731599 0.16499557 -0.2582949 0.07214228 -0.30068055 -0.15906906 0.068926156 -0.08145823 -0.19828063 -0.3094674 0.27987018 -0.095067486 -0.117636815 -0.035612524 0.22087401 0.08286537 0.14584729 0.0774381 -0.106891915 -0.0140377125 0.05192191 -0.013012164 -0.035603344 0.015182584 -0.036895152 0.020096002 0.20642306 -0.3696143 -0.041393265 -0.15831397 -0.093049355 0.055080414 -0.13236023 0.2876537 -0.058378324 0.06255465 -0.08207613 0.09848505 0.16831896 0.08511107 0.22525387 -0.09035552 -0.026258647 -0.016908862 -0.08023024 0.098658636 -0.05965249 0.23933472 -0.100264765 0.07495365 0.03649 0.24606207 -0.053499874 0.023853574 -0.08050189 -0.019226085 0.17338146 0.0630171 0.22285204 0.029305458 -0.13773917 0.026552739 -0.28758165 -0.058213837 -0.12071888 0.07969027 -0.25439006 -0.09364384 0.065027066 0.06593463 0.09599513 0.05253928 -0.012483621 0.047962915 0.041091565 -0.051486515 -0.031054698 -0.080451615 -0.04859714 0.06908195 -0.028757675 0.058424465 0.03653578 0.067581706 -0.030997839 0.028397826 0.18970181 -0.107949495 0.07103694 0.15000895 -0.10445802 0.04582278 0.2294521 -0.042377237 0.0050844485 -0.06358695
re 0.41618115 -0.12233034 0.21257833 0.09371196 -0.39406407 -0.16082947 0.06152014 -0.050554033 -0.2270594 0.06077263 -0.29734653 0.43720242 0.18011455 -0.3436894 0.1840029 -0.12771514 -0.44704312 -0.2792899 -0.2603802 -0.12244927 -0.28021923 0.1153315 -0.27672213 -0.014747062 0.04638514 -0.15286429 0.013377701 0.09245667 0.30128354 0.014483864 0.15024501 -0.101203755 0.08322104 -0.195558 -0.1715987 0.24881402 0.102193244 -0.13464737 0.1514899 -0.029023524 0.0005479997 -0.29116586 0.3334095 -0.073475994 -0.30213886 0.07186511 0.3101814 0.3013157 0.3630259 0.016032433 -0.03676864 0.081440076 0.13837373 -0.124011524 -0.08526154 -0.35636252 0.06754896 -0.21589248 0.32145026 -0.21234065 -0.011604974 -0.30638567 -0.29855564 -0.20036277 -0.17410818 0.20000714 -0.092041984 0.23463142 -0.06765484 -0.098207325 0.13946661 0.426076 0.3898372 -0.11763644 0.05629356 0.37091768 -0.09641771 -0.04764109 0.0519272 0.402541 -0.058869053 -0.13422164 0.061946534 0.5807957 -0.31014255 0.28864613 0.091723815 0.11201887 0.20518316 0.08675321 0.25019658 -0.14778365 -0.14780737 0.14088716 -0.1943623 -0.04962728 -0.088505484 0.32420498 0.113143265 0.01522173 0.07229762 -0.10348772 -0.12300477 -0.054794483 -0.35835063 0.116056815 0.019649252 -0.077898934 0.20958039 0.33993718 -0.13986532 0.19415122 0.09641291 0.15237188 -0.10331802 -0.07356109 -0.027604524 0.12067746 0.29686725 -0.15582465 0.09393561 0.28555402 0.1532804 0.4420151 0.055929422 -0.04069108 0.08598387 -0.029235397
t 0.46385953 -0.008605532 0.49273723 0.49411258 -0.16117187 0.10205993 0.1978348 0.0035019752 0.2269092 -0.088567786 -0.16906248 0.04716898 0.44848633 -0.4557369 0.025887292 0.15076484 -0.35447147 0.2268973 0.3019681 -0.06890035 -0.29208857 -0.030925466 -0.21271601 0.0682228 0.31168014 -0.525734 0.14206453 -0.3535047 0.101568304 0.5501856 -0.21915978 0.10535825 0.22767404 0.5170247 0.04427693 0.05533382 -0.35979 -0.20708649 0.24083583 -0.048094865 0.1413122 -0.35627353 0.26583108 0.18273254 -0.23896565 -0.05132747 0.37364003 -0.10388724 0.14287591 0.28393707 -0.14050882 0.074987166 0.44501868 0.08701356 0.13959078 0.3306033 0.19340554 0.1827475 0.18512838 -0.41661352 0.11164554 -0.54342604 -0.0055804257 0.2732709 -0.1752927 0.15641399 0.19566053 -0.26860744 -0.4339077 0.29441145 0.14777632 -0.34328836 -0.0017574095 -0.1793464 -0.13574915 -0.32807928 0.0601114 0.24703969 -0.38372302 0.21955581 0.24358876 -0.047327034 -0.0513942 0.35800093 0.05636728 0.024941474 -0.21359137 0.27961293 0.25129557 0.0034713813 0.18937653 -0.17609027 -0.13842268 -0.44482714 0.17248377 -0.38771263 -0.07100069 0.11783446 -0.055888023 -0.14188893 0.35241637 0.10250615 0.18220788 0.16531004 0.11373188 -0.031781837 -0.14165995 -0.4904437 -0.1273565 -0.112627134 -0.27263197 0.076230325 -0.25324777 -0.24523069 -0.34477496 0.16767833 0.14704831 0.6106366 0.52343386 -0.4693244 0.16884585 0.24798782 -0.32506987 0.08263296 0.19400866 0.03114635 0.29854658 0.06321605
on 0.24794859 -0.023870882 0.056185283 0.16533072 -0.1731024 -0.10063454 0.13475451 -0.06579002 -0.15731385 -0.29210278 -0.19791977 0.21000455 0.106061965 0.0029172192 -0.03720501 0.08725302 -0.29380396 -0.09359754 -0.11847385 0.03638085 -0.21793064 0.042382143 -0.042833094 0.03870602 -0.16276588 -0.0762795 -0.07210181 0.14926517 0.10228928 0.14057857 -0.07068848 0.04019969 -0.07102309 0.056761257 -0.058730148 -0.25624025 -0.35316578 -0.11104059 0.05135501 -0.07760524 -0.110034555 -0.39307147 0.13786557 -0.067324914 -0.040468983 -0.05115398 0.09228866 0.23594975 0.24071187 -0.022205988 0.013819789 0.17499809 0.16907243 -0.21119286 0.017019484 -0.039623495 -0.02996155 -0.12952144 0.28888232 -0.19191593 -0.032653954 0.022994597 -0.22382598 -0.023952814 -0.030821547 0.23363191 -0.033962984 -0.07120361 -0.14666496 0.038606133 0.23583835 0.26059797 0.20287454 -0.07773599 -0.057422247 0.101883374 0.037712857 0.14403513 -0.12306648 -0.050550636 -0.18141583 -0.073106974 -0.05206013 0.31757918 -0.0010776148 0.2146624 -0.07654383 0.13849649 0.00025670137 -0.0450833 0.04099741 -0.10794444 0.0012980155 0.02994065 -0.24709478 -0.036664926 -0.19635765 0.03346507 -0.09795766 -0.015429965 0.014304139 0.066683255 0.104041316 0.20371802 -0.10713 -0.027201928 0.08687044 -0.03615329 -0.14859551 0.011189772 -0.020337842 0.104692005 0.030604884 0.008760412 -0.12289594 0.017156066 0.044530727 -0.006212694 0.08131044 0.085780144 0.08953768 0.12183858 -0.1079135 0.09173748 0.19768807 -0.03918818 0.056125924 -0.10018199
like 0.3233522 -0.031138925 -0.007072836 0.29537684 -0.07001518 0.030123696 0.050682485 -0.07190491 0.062120758 -0.12816752 -0.23113027 -0.043224655 0.114807524 -0.126486 -0.10599426 0.17966957 -0.272713 0.08718259 0.033977155 -0.08328682 -0.07475428 0.028072294 -0.19636086 0.0109396735 0.12367114 0.09111273 0.050649814 -0.15400036 0.11310233 0.2578755 0.031481277 0.037479922 -0.004673905 0.19011506 -0.22109856 0.0022425766 -0.3244029 -0.11961324 0.17855741 -0.10289905 -0.052285448 -0.38197 0.26266542 0.14237401 -0.0013914678 -0.038086534 0.13483933 0.066086195 -0.024161283 0.12001392 -0.11753927 -0.11116548 0.19459327 -0.27668947 0.086088195 0.068253875 0.090940595 0.07020666 0.24853644 -0.2698523 0.14362147 -0.1816165 -0.12663135 0.07358134 -0.23199092 0.27283865 -0.058724537 -0.073785566 0.017615393 0.13735153 0.2536932 -0.059023246 0.2618013 -0.17702651 -0.19598287 -0.100576684 -0.08518112 -0.021879336 -0.24375835 0.14822194 0.123214446 -0.013869687 -0.040598493 0.4157586 -0.026317718 -0.011664324 -0.22578673 -0.029379124 0.19274494 0.09570797 0.11415178 0.039614346 -0.018415285 -0.013076048 -0.12866046 -0.1720108 0.00018630593 -0.024460832 -0.15552951 -0.009978279 0.1670637 0.04458533 -0.059593223 0.20135604 -0.12417824 0.1621961 -0.006546886 -0.01204869 -0.14731407 0.03192805 0.03208289 0.005741414 -0.04627906 -0.02439879 0.10892355 0.14234552 0.085015535 0.022556623 0.09835209 -0.042294994 0.17418982 0.20810752 -0.17414093 0.011122084 0.13448484 -0.1824787 -0.019446617 -0.15347281
there 0.28570604 0.020892508 -0.16871148 0.27215993 -0.20548661 -0.09738829 0.1417219 -0.23220137 -0.17692864 -0.24233669 -0.17706387 0.039182566 0.098819114 -0.21984887 0.13098016 0.1464636 -0.35748687 -0.06777776 -0.05223672 -0.28397423 -0.34920904 0.21250212 -0.14320427 0.036239937 0.009965574 0.110814184 -0.28789365 -0.038068533 0.0171517 -0.078661494 -0.003804639 -0.16098441 -0.0391689 0.34820828 -0.33404917 0.025050974 -0.113708876 0.07219321 0.13528788 -0.16385832 -0.2046543 -0.26873222 -0.0008598283 -0.097324245 -0.1304312 -0.072366945 0.16312869 0.10873503 0.26166272 0.09238248 -0.028408619 -0.1979953 -0.013736891 -0.24810575 0.28004998 -0.109380856 0.037422284 -0.262448 0.27015445 -0.6064251 -0.12868068 0.049120255 -0.029485673 -0.11851563 -0.17156763 0.10678166 -0.12942551 -0.04491664 0.03200419 0.04522167 0.12276763 0.09367671 0.3135279 -0.31889033 -0.043478955 -0.07008552 0.030905047 0.10814522 -0.2512528 0.16617839 0.05984379 0.080685854 -0.13092734 0.30107895 -0.0059789275 0.29618382 -0.094910555 -0.29242018 -0.00803729 0.14484285 0.23084684 -0.028084507 -0.097464696 -0.012180019 -0.15069993 -0.116910696 -0.078923136 0.22104345 -0.2585411 -0.16628502 -0.036569525 -0.07326178 0.040556993 0.31006977 -0.039677307 0.24509968 0.08823308 0.16381495 -0.0523866 -0.013328376 -0.044021804 -0.032768585 0.22944508 0.12551042 -0.034297884 0.09669018 0.06911995 -0.16149634 0.19119577 0.035844892 -0.010774948 -0.16904937 -0.15202616 -0.12765354 0.17309174 -0.16812868 -0.048714947 -0.021394538
just 0.06190137 0.042538755 0.08231821 0.14324957 -0.117906496 -0.047985516 0.05243969 -0.09046713 -0.07970483 -0.14871101 -0.11554104 0.0751925 0.07325638 -0.1073086 -0.046271067 0.0052397246 -0.31126726 0.06790403 -0.00910634 -0.1609581 -0.25384817 0.09999527 -0.117986836 0.11406841 0.025386525 -0.016916439 0.102673344 0.08639335 0.15329073 0.1784208 0.01929087 -0.0552811 0.0048111174 0.17964876 -0.18572459 -0.014438018 -0.22633848 -0.1379486 0.08200059 -0.12887752 -0.18835653 -0.34412137 0.12555067 0.038910627 -0.11765974 0.01668762 0.16497168 0.2194886 0.22321646 0.15358575 -0.0126713505 -0.015526464 0.09551492 -0.115525275 -0.036684643 0.0948825 -0.058229685 -0.12200565 0.18801273 -0.42891657 0.021004403 -0.19598125 -0.18817198 -0.0126498 -0.078967355 0.26525655 -0.06618039 -0.029144716 -0.111717746 0.14574686 0.14348315 0.14488749 0.34330502 -0.11900633 -0.03939144 -0.075583525 -0.046303466 0.091718145 -0.156451 0.20516464 -0.14487925 0.02925568 -0.09052576 0.3311178 0.045644984 0.14462964 -0.22242936 -0.026118992 0.10187911 0.03198226 0.10162645 -0.021409355 -0.038466 -0.037094004 -0.2022993 -0.08317704 -0.14757197 0.07110418 -0.1616334 -0.0438091 0.10072088 0.09143254 0.02005237 0.10830678 -0.021232694 0.13439515 0.07267537 -0.048444584 0.019996217 0.03422768 -0.0068979044 0.07001376 0.06659547 -0.017458087 -0.05540984 -0.034273956 -0.0047942623 0.10688347 0.21656466 -0.005492298 0.15624925 0.27984953 -0.16505256 0.04561027 0.19654876 -0.113394246 0.03970788 -0.13342501
here 0.01969041 -0.0064548426 0.015914662 0.15378529 -0.22495377 -0.13543731 0.04644016 -0.22155692 -0.3166721 -0.089919835 -0.0971089 0.042692207 -0.052668534 -0.105180636 0.06038535 -0.038166877 -0.23630857 -0.11701945 0.001121635 -0.14033227 -0.33785897 0.1751401 -0.12858805 0.049663488 -0.10082419 0.07121228 -0.12478369 0.020950688 0.10108233 0.0136063285 -0.025233652 -0.039662216 0.011321755 0.1868651 -0.171417 -0.25588563 -0.22304542 -0.0112554375 0.15088932 -0.13557371 -0.27400956 -0.26824144 0.015133662 -0.111400925 -0.16587047 -0.00689853 0.10711874 0.12485786 0.2823418 0.0528943 0.0050652926 -0.00040084915 0.095323734 -0.20448649 0.030407669 -0.033175375 -0.055416524 -0.35794926 0.26362264 -0.42689213 -0.085789196 0.014306771 -0.15521854 -0.121900275 -0.14764921 0.21585163 0.050314702 0.1164656 -0.07487766 0.11943636 0.1322706 0.33842957 0.29431364 -0.17038044 -0.08063579 0.0030500959 0.007144012 0.024034323 -0.031216169 0.18258046 -0.20280041 0.0016204983 -0.03025032 0.23977235 0.07855539 0.2658239 -0.15915135 -0.18606547 -0.046286207 -0.024446579 0.079821035 -0.13963002 -0.021447914 0.065434515 -0.1905184 0.036522932 -0.15734753 0.20042159 -0.3059275 -0.12849866 -0.07432688 0.13683738 0.11881519 0.14302722 0.0608191 0.0850834 0.098748475 -0.068129115 -0.04346696 0.10273334 -0.047795556 0.16790265 0.21181095 0.07022529 -0.17580512 0.12987198 -0.0011635969 -0.023608146 0.20403443 0.07291937 -0.0077448785 0.0963962 -0.10027841 0.028839469 0.25082383 -0.03504313 -0.034371156 -0.07169538
m -0.41905564 0.068580806 0.02811344 0.17335948 -0.015797108 0.05099872 -0.15702188 0.11968869 -0.1771654 -0.10107851 0.034231383 0.31262854 0.14167519 -0.049981166 -0.070344284 -0.24016514 -0.50786746 -0.033770967 0.056177106 0.018500598 -0.3249036 -0.031817555 -0.14813331 0.044215035 -0.078061014 -0.28121787 0.16034532 0.36865386 0.2734778 0.01962281 0.18582508 0.04824937 0.16110076 0.052355565 -0.15901014 -0.013380827 -0.27327323 -0.23352793 -0.030369807 -0.23790416 -0.1439551 -0.5119867 0.08929256 0.31298804 -0.26548657 0.07998918 0.39566752 0.33224067 0.400976 0.21587157 -0.16574368 0.03375534 -0.032766115 0.015944516 0.00575458 -0.108554035 -0.25361538 -0.14677703 0.46103272 -0.6240296 -0.0045735417 -0.017697316 -0.25698182 0.19798794 -0.0346255 0.08853645 -0.0023547104 0.1224602 -0.07621166 0.1273839 0.3835079 0.36837918 0.22766554 0.047760144 0.13655074 0.21708323 -0.21623059 0.31496224 -0.0775537 0.41990808 -0.10958442 -0.035958596 -0.06744385 0.25505108 -0.13771062 0.0730114 -0.20463467 0.0873975 0.06404692 0.04023928 0.18840922 0.025548307 -0.097366646 0.25721228 -0.22436032 -0.05833002 -0.19364834 0.1893662 -0.18792406 -0.093553804 0.1959649 -0.037004612 0.19954571 0.025357509 -0.44291973 0.06022827 -0.07832603 -0.22922331 -0.021582756 0.14350604 -0.11005096 0.36199892 0.14498587 0.16847004 -0.2351266 -0.22310412 -0.11902765 0.3017393 0.24641833 -0.15535963 0.25373414 0.19180696 -0.089478046 0.29066387 0.4072816 0.097185194 0.14112638 0.032647155
go 0.008697993 0.051566295 0.01142096 -0.01686932 -0.34208822 -0.2090165 0.16762328 -0.015756503 -0.18844296 -0.024876831 -0.030253274 -0.037767593 -0.06511319 -0.16471532 -0.063776515 -0.09355909 -0.16480646 -0.028573168 -0.07394731 -0.093567744 -0.32375574 0.2650152 -0.054639917 0.059890606 -0.060402274 -0.12532571 0.08191926 0.101165265 0.05422624 0.20159104 -0.028713765 -0.08707108 0.13131036 0.13826542 -0.06789048 0.024261834 -0.13539392 -0.10211472 0.18810247 -0.039345678 -0.10373984 -0.22861041 0.17719354 -0.048303276 -0.40860885 -0.010377723 0.17528199 0.08574283 0.23430368 0.19107379 -0.12746337 0.11335372 0.13032335 -0.10147494 -0.104630254 0.0070204614 -0.040965423 -0.2478683 0.25140947 -0.3794061 0.025348833 -0.32391444 -0.24464984 -0.034328114 -0.14257005 0.28002924 0.05010296 0.076541394 -0.2347697 0.16459534 0.065219365 0.3815617 0.34749073 -0.21245179 -0.016223062 0.007302809 0.13395096 0.068073325 -0.15511218 0.31493708 -0.34401256 0.0407911 0.12840126 0.2987924 0.13001986 0.2749899 -0.15688393 0.030803597 0.18609905 -0.12042566 0.23708172 -0.23364963 -0.19901797 -0.009727034 -0.37557495 0.056240745 -0.27879182 0.15780005 -0.4022678 -0.05393201 0.06739632 0.31362182 0.10534752 0.09626685 -0.07139677 0.10703065 0.15790726 -0.22020966 0.039709147 0.072863154 -0.076385684 0.12855774 0.20947899 0.02360355 -0.22902809 0.26048514 0.15249977 0.02108829 0.35715598 -0.09074545 0.111998394 0.2943801 -0.110806346 0.15031692 0.24038056 -0.16507457 0.06162208 -0.08859118
have 0.16697668 0.103875026 -0.038668897 -0.13957167 -0.108044215 0.05804493 0.09296176 -0.042850014 -0.18155064 -0.1637403 -0.18502203 0.270244 0.14966808 -0.26180303 -0.022919409 -0.030183397 -0.117265895 -0.109477684 0.06947093 -0.12667543 -0.16561393 -0.034876827 -0.18443753 0.051523186 0.04178133 0.00065823935 0.012585945 -0.18399063 0.077278726 0.21557309 -0.05459214 -0.00072488276 0.09404403 0.069618985 -0.16590035 -0.025151422 -0.13020696 0.11773476 0.015428357 0.016814511 -0.15006065 -0.30700833 0.28449115 0.05814081 -0.08674069 -0.058558907 0.14785081 -0.040365886 0.118343584 0.15041341 -0.27271593 -0.132001 0.33278042 -0.20317012 0.14944555 -0.1028302 -0.0516601 -0.20864792 0.3195213 -0.23090677 0.10793616 -0.19523267 -0.090869285 -0.033928428 -0.22340432 0.2677153 0.14800449 0.15425456 -0.19766481 0.025556784 0.20816192 0.016536923 0.21560721 0.01231018 -0.051456142 -0.088837564 -0.11895458 0.1253039 -0.20229644 0.25503737 0.051397376 0.14812437 -0.062124547 0.46356905 0.05210814 -0.053244993 -0.22577222 0.12430518 0.2313896 -0.1437817 0.21760416 -0.16253 -0.2933282 0.08086111 -0.31069568 -0.09073489 -0.049380235 -0.006730319 -0.101685464 -0.09779375 0.03958895 -0.12951118 -0.12893607 0.06768065 0.13006437 0.15674539 0.04637856 -0.15951388 0.009514828 0.04018639 -0.06487877 0.1552261 0.09982373 -0.0058231936 -0.0017098726 0.1731526 0.09816295 0.11981845 0.30672517 -0.12313444 0.07288515 0.20195429 -0.14904103 -0.02563923 0.18176514 -0.12166226 0.0191212 -0.13032362
gonna -0.11311033 -0.035692044 0.20306154 0.43853763 -0.094345324 -0.09751705 -0.05501381 -0.22294965 -0.27942297 0.010570613 0.1183807 0.09662386 -0.106614 0.16578461 -0.23832367 -0.26665223 -0.35187948 -0.052982252 -0.030097013 0.06542618 -0.28395966 0.0631577 -0.24577865 0.04352722 0.116579615 -0.051767353 -0.09217142 0.009202387 0.36801323 0.3136807 0.22505261 -0.1086182 0.28918654 0.19696498 0.034622464 -0.15652564 -0.20642729 -0.28180942 0.387662 -0.08974833 -0.19884767 -0.4639022 0.1447277 -0.035319056 -0.313213 -0.06591828 -0.15620112 0.41020697 -0.089574456 -0.0056334925 0.15583366 -0.16589348 0.107723504 -0.03595622 0.0051207975 -0.0885208 -0.12011523 -0.49489024 0.15969816 -0.3309052 -0.11225842 0.023517609 -0.33629405 0.0644487 -0.32023805 0.18559179 -0.17608383 -0.16319592 -0.10539854 0.30561417 0.07563746 0.43714875 0.63032734 -0.32432926 0.00037775387 -0.04639178 -0.2043753 0.24132302 -0.13663533 0.1334865 -0.24956529 -0.23126057 0.10744565 0.27838457 -0.14028999 0.33890286 -0.18082346 0.060488068 0.08013232 0.07516699 0.33294147 -0.10548817 0.14349824 0.07907404 0.05426649 0.037594885 -0.33322725 0.014995239 -0.334181 -0.13029294 -0.18744573 0.16210991 -0.1323407 0.18045679 -0.25099197 0.076089874 0.12772463 -0.45494366 -0.060984295 0.19661754 -0.17230289 0.1434675 0.16252922 0.14749792 -0.35670385 0.17451671 -0.12823048 0.0826379 0.099503756 -0.010084439 0.0921758 0.35966918 -0.06162078 0.03454727 0.38918486 0.13489687 -0.08121906 0.0121445805
my -0.013152429 -0.16488054 -0.010353137 0.19263345 0.09810042 0.027323132 -0.02225328 -0.14192742 -0.13690963 -0.27879283 -0.0025585084 0.131897 0.0586111 -0.121706694 -0.13504675 0.2785862 -0.10481935 0.13575129 0.19840005 0.013324475 -0.2715057 -0.07822456 0.105457984 0.040884703 -0.20202003 0.19400772 -0.07330612 -0.02410052 0.12108414 0.21338627 0.039632183 0.20422657 -0.080202855 0.117225125 -0.013067714 -0.48524666 -0.3251376 -0.14121209 0.14567168 -0.17334749 -0.11506271 -0.39394355 -0.21296158 0.08068304 0.15729201 -0.17263338 0.14191578 0.034303047 0.12563759 0.2372586 -0.14100589 0.17830706 0.29139972 -0.21019258 0.017750489 0.22294132 -0.13667972 -0.23004085 0.41609493 -0.19335957 0.11532116 0.0670997 -0.14300941 0.066725925 0.2852038 0.033643067 0.33756527 0.010817645 0.0131336255 0.024768203 0.04059132 0.0826665 -0.008944716 -0.08927507 0.18090425 -0.11578491 0.11114165 0.092587665 -0.057695556 0.17852509 -0.046113383 -0.1297313 -0.20717248 0.22931792 0.13237263 -0.115090884 -0.14762495 0.06468803 -0.008548972 -0.09251304 -0.028495703 -0.029887088 0.082224056 0.28457263 -0.21346681 0.045578122 0.08082019 -0.09028486 -0.25790042 -0.0016847224 0.06921694 0.1383052 0.087316684 0.014357902 -0.26093107 0.028231319 0.010962942 -0.22327076 0.030175805 0.18449232 -0.031899285 0.31767127 0.22292234 0.07561806 -0.22922432 -0.011839288 0.111254826 0.16640836 0.18406773 0.06021793 0.26757395 0.22849809 -0.2469179 0.06872437 0.2885513 0.16130324 0.039077703 -0.07403974
if 0.59778345 -0.036736213 0.15117636 0.17051744 -0.4521284 -0.07040064 0.07243915 -0.24055825 -0.08311182 -0.16854611 -0.32695654 0.0864564 0.06336667 0.006887998 -0.084048115 0.13327777 -0.29750568 -0.07044485 0.05620369 0.008571948 -0.28430358 0.04736082 -0.2788527 0.09267114 -0.0168831 -0.10938504 0.049242258 -0.16995281 -0.03060507 0.26466054 -0.20881696 -0.10954262 0.033373885 0.1623212 -0.09345672 -0.073891744 -0.39095393 -0.0479176 0.22774269 -0.039626647 -0.073487826 -0.27165595 0.24259086 -0.08105044 -0.31128094 -0.19564527 0.2678206 0.042740356 -0.08466287 -0.063743 -0.03710256 0.0026615793 0.22912319 0.009484271 0.06555339 -0.047246467 0.069354534 -0.3002304 0.29687053 -0.23113413 0.069618754 -0.2923092 0.1399451 0.13967139 -0.23194386 0.17484313 0.035798658 0.012832483 -0.23217052 0.21703602 0.08591912 0.09112569 0.05302843 -0.04152338 -0.032710288 -0.2715939 0.13700649 0.124746926 -0.41864806 0.020458193 -0.095415175 0.093041785 0.24267985 0.26942766 0.04141597 0.15573679 0.010750155 0.12941645 0.17364132 0.1165921 0.2586599 -0.2916063 -0.043343082 -0.31335458 -0.14769359 -0.037950788 -0.21447761 0.049034625 0.026908608 -0.16941038 0.06027675 0.12887716 -0.07060713 0.09049228 0.14310378 0.033536788 0.24695545 -0.12892382 0.02197952 0.019850524 -0.15958802 -0.03386585 0.1473859 -0.035293203 -0.07741124 0.151721 -0.038125925 0.172997 0.29213586 -0.07612173 -0.106304884 0.20050599 -0.06596614 -0.09784898 0.13199566 -0.074932426 0.13750565 -0.091445625
get -0.010169712 0.026000023 -0.04655087 -0.16722026 -0.15556975 -0.079921015 0.14743987 0.026562005 -0.1529769 -0.08192811 -0.07102471 0.046310447 0.006870798 -0.21808891 -0.043558173 0.026536664 -0.065629646 0.030048281 -0.027159212 -0.18632519 -0.25578022 0.13104896 -0.046196003 0.051490743 -0.0737477 0.018304307 0.0530176 0.015046085 0.058977034 0.14294778 -0.0041462006 0.042027798 0.042019203 0.013345771 -0.22805716 0.051879723 0.028897597 -0.029794449 0.16391984 -0.09502297 -0.18606943 -0.29274142 0.09985546 -0.14959206 -0.36574006 0.05245377 0.13027571 0.030101337 0.27074838 0.23303464 -0.1536893 0.092915915 0.17294158 -0.10255476 -0.03291512 -0.05996863 -0.097573124 -0.18524453 0.2495688 -0.38137504 0.06877082 -0.3398496 -0.24456581 -0.07056119 -0.062454414 0.25718665 0.080220096 0.12006128 -0.2505673 0.10954778 0.1487769 0.33212197 0.31115222 -0.24659549 -0.0136372 -0.078484036 0.11152825 0.040421642 -0.19317988 0.34995887 -0.31010118 0.06288522 0.049441617 0.3438784 0.20677082 0.11076147 -0.23935339 -0.028928626 0.26505843 -0.06902752 0.259596 -0.21231705 -0.22893254 -0.07417833 -0.35488155 -0.014499668 -0.17224012 0.11046349 -0.25308293 -0.07962583 -0.016780915 0.1978997 0.0883788 0.18662825 -0.008417674 0.20639314 0.2088629 -0.14853331 0.1265864 0.06984531 0.015783114 0.16455469 0.21347913 0.010528973 0.046008516 0.18702197 0.28465447 0.03294676 0.37145752 -0.04021989 0.13561122 0.37043506 -0.09251388 0.066718206 0.19279675 -0.2527516 0.012583689 -0.14582427
one 0.1893832 0.09780658 -0.10001217 0.15835854 0.003752143 0.09326727 -0.062475767 -0.29486188 -0.26432925 -0.23989123 -0.11014775 0.03698849 0.14663571 -0.024227118 -0.07625255 0.101907805 -0.22011621 -0.1965209 0.055371113 -0.037693396 -0.19116561 0.03139342 -0.090367235 0.16503213 -0.030230876 0.00060083607 -0.25198025 -0.18459359 0.12357101 0.23091613 -0.16078019 0.12536114 0.025004148 0.312229 -0.1935486 -0.11302176 -0.50112486 0.018277453 0.1573081 -0.1740568 -0.25511476 -0.37601328 0.106467135 -0.090161696 -0.0043949876 -0.07239343 -0.014384215 -0.029182287 0.09705201 0.1630705 -0.21285221 -0.079936065 0.05832715 -0.25514072 0.19399075 -0.1634635 -0.066682175 -0.15674552 0.28424242 -0.24624044 -0.06275621 0.063890025 -0.17317557 0.013618122 -0.1053159 0.1841981 0.08858052 0.08613065 -0.21793982 0.05241382 0.12651485 0.018574042 0.11533983 -0.088094674 -0.12417264 0.12745415 -0.14681183 0.21363963 0.02983363 0.014226477 -0.00931137 -0.0052598417 -0.028847141 0.36464432 0.07627946 -0.023443274 -0.1898121 -0.104501635 0.045633882 -0.030508813 0.24031083 -0.06320757 -0.22887544 0.21103795 -0.21844512 0.039598886 0.07396568 0.14834683 -0.23001018 0.011666767 0.121902496 -0.121650964 0.123007245 0.13556367 -0.011349706 -0.051969014 0.07053258 0.02337243 0.018169055 -0.09179783 -0.08907316 0.08526366 -0.012422128 0.030589653 -0.016385473 0.13636842 0.09199597 -0.14368735 0.2615562 -0.030158957 0.008719431 0.009269105 -0.052335676 0.048564743 0.21027184 -0.015503763 0.07867291 -0.13121715
they 0.25978076 -0.18231499 0.0102183595 0.017483793 -0.34916854 -0.18751195 -0.092183396 0.18616809 -0.11130829 -0.13063456 -0.32506338 0.14097817 -0.10012633 -0.14668398 -0.059443336 0.056467924 -0.33410254 0.15148492 -0.18678865 -0.02183226 -0.113977306 0.1600012 -0.076897174 0.02947362 -0.066941224 -0.11135519 0.03276575 -0.050912976 0.23401445 0.27492023 0.11320138 0.020969855 0.14728197 0.11371178 -0.1470744 -0.072514944 -0.5600485 -0.10446024 0.27883333 -0.22668497 -0.11913233 -0.370385 0.29732606 -0.018120999 -0.30812335 -0.028571405 -0.077030934 0.060094338 0.19742179 0.058242615 -0.08348892 -0.08281769 0.43583763 -0.5553589 0.18130334 0.091679096 0.015747774 -0.11849188 0.2286358 -0.34598535 0.22754158 -0.2433525 -0.05558412 0.054665223 -0.18502332 0.29448235 -0.07917996 -0.22093587 -0.042854063 0.14443333 0.030068299 0.11767182 0.50723016 -0.13642286 -0.18060501 -0.077803016 0.08997491 0.03818388 -0.4285841 0.04871302 0.24326693 -0.16301273 0.042159665 0.44872668 0.01830572 0.19727166 -0.08252484 -0.09791329 0.036034875 -0.06416275 0.033047423 -0.12668064 0.08088025 -0.20096019 0.14598991 -0.13052619 -0.08392754 -0.3021275 -0.0025396952 -0.09325242 0.009247384 -0.07002922 -0.19273447 0.08768917 0.2358049 0.08819893 -0.08195378 -0.09487034 0.0017042368 0.0029431402 -0.028938446 -0.0009778121 -0.002638298 0.0017201923 0.18276106 0.17057313 -0.02072253 -0.063768655 0.056307692 -0.045789864 -0.05036548 0.34407687 -0.053729896 0.02214173 0.06890616 -0.3091832 0.04256969 -0.08842665
music 0.06105564 0.034193695 -0.041146602 0.2184149 -0.21131748 -0.024193214 0.17970404 -0.023087228 -0.16773634 0.11500911 0.03376453 0.0551941 -0.07223439 -0.13361426 -0.1224344 0.33438092 -0.31059867 -0.11502899 -0.25460014 -0.2219064 0.045566324 0.22864765 -0.036593266 0.08035704 0.20446943 0.118842945 -0.30030683 -0.3650135 0.10438397 0.3320632 0.20056604 -0.14359923 0.06522963 0.3151586 0.10590615 -0.19373736 -0.34929422 -0.11979778 0.086507194 0.21308962 -0.07964647 -0.414541 -0.10901195 -0.11046465 -0.28252408 -0.0037439107 0.3871988 0.08604694 0.14797714 0.4836213 0.04149605 0.036724135 0.29603547 -0.15981846 0.094452664 -0.0008232471 -0.0330297 -0.24803647 0.1763416 -0.1170251 0.27655467 0.003081898 -0.40184447 -0.002846694 -0.054846425 0.42233804 0.21082814 -0.044214346 -0.11732604 -0.11111824 0.033861075 -0.21190733 0.30428866 -0.30871892 -0.12818412 -0.23694068 -0.06753691 0.30316615 0.07157606 0.027094066 -0.31692338 0.19710569 -0.041771263 0.2772709 0.39293966 0.030277224 -0.2403614 -0.30280656 0.0051876353 0.13076076 0.2484912 0.13136502 -0.11811894 -0.07762974 -0.50918335 0.3274617 -0.14592873 0.17729713 -0.18953049 0.16441391 0.00068691134 -0.1478844 -0.06650439 0.30078843 -0.2265083 0.25017166 0.17144303 0.028970428 0.12919457 0.2811746 -0.044110004 0.26882908 0.1348084 -0.028917022 -0.1255668 -0.03057771 0.15608418 0.06666652 0.27713624 0.0153596625 0.28157052 0.15005049 -0.15526922 -0.12669782 0.14075781 0.15914704 0.10277077 -0.36030707
be -0.1636571 -0.058441494 0.0285056 -0.21549287 -0.22702028 -0.17019579 -0.036801532 0.04066882 -0.33481628 -0.14576446 -0.20308146 0.22749606 0.3583499 -0.32387194 -0.07893651 0.040187895 -0.5542901 0.044377763 -0.09956559 -0.15994436 -0.40173417 -0.21629396 -0.22817744 0.16916792 -0.046332967 -0.07951113 0.119104646 0.4019921 0.22417898 0.28779182 0.1325826 0.033031516 -0.0047905515 -0.008328987 -0.22186603 0.34211537 -0.123623915 -0.16503227 -0.13241541 -0.27862376 -0.29094425 -0.29269126 0.08869563 0.19950321 -0.23863539 0.12596703 0.13448109 0.20843495 0.1705361 0.1595342 -0.1834457 0.13172348 -0.035575908 0.010227272 -0.03225963 0.020461196 -0.28632793 -0.13206919 0.5261749 -0.53680295 0.084319435 -0.12941632 -0.119100675 0.029895572 -0.026225423 -0.031753633 0.04977196 0.030170556 -0.11544057 0.008483097 0.35993806 0.27341124 0.43487027 -0.0052277823 0.027003761 0.16081052 -0.1705029 0.043558985 -0.27968398 0.2394648 0.023864971 0.09094054 0.018639723 0.2642718 -0.07295236 0.1150043 -0.22618093 0.047876477 0.32409722 0.0012393029 0.22152032 -0.2727838 -0.37609133 0.014531191 -0.27614218 -0.061058156 -0.2280224 -0.06440061 -0.09650514 -0.20523435 0.08862273 -0.04003255 0.09552277 0.0106979925 -0.1344787 -0.062499456 -0.108044975 -0.19738007 0.12558822 -0.0786411 0.053631313 0.13949336 0.19635938 0.1783808 0.20143779 0.05421822 -0.061321996 -0.010613384 0.09012493 -0.19517504 0.15255733 0.052181166 -0.0057767634 0.19341908 0.1254216 -0.08518221 0.0072896024 0.0039200573
was -0.116246305 -0.1490149 -0.038372055 0.20913325 0.12052439 0.049428 0.031499673 0.061377086 0.16122718 -0.08713242 -0.3075224 0.14461666 0.26784274 -0.24356857 -0.07948726 0.11758375 -0.43061936 0.20222156 -0.11878407 -0.104167454 -0.12419564 0.071527936 -0.07707733 -0.12646262 -0.14116308 0.0774088 0.21769406 0.22397192 0.07428011 0.18195517 0.07921247 0.18434288 -0.15445371 -0.0162358 -0.11555805 -0.07725511 -0.3716938 -0.33415422 -0.012314817 -0.21372472 -0.10841131 -0.6511487 0.21986994 0.25365305 0.05039439 -0.024932787 0.35849392 0.101669125 0.18059726 0.28953433 -0.19528142 0.26240015 0.10767648 -0.25274104 0.017231692 0.05913899 -0.122808084 0.23735106 0.33732042 -0.30929005 0.13852899 0.13356628 -0.19483276 -0.028445227 0.091727324 0.27352235 -0.09338833 -0.0013101825 0.30539712 0.078159966 0.39763555 0.071461454 0.13961172 -0.13869588 -0.04514202 0.19627705 -0.04898783 -0.13505249 0.13942961 0.2371658 0.0010992952 -0.014855385 -0.09561549 0.24417432 -0.1563645 -0.11518015 -0.08117144 0.06406192 0.191595 0.06288513 -0.10623063 0.22771135 0.10767141 0.17144494 -0.3274139 -0.07265291 0.005813074 -0.044195935 -0.27670062 0.052239556 0.16439313 0.098992415 0.15640517 0.0948332 -0.39504716 0.06667398 -0.06693386 -0.14486054 -0.03707975 0.030673342 0.12554507 0.17765026 0.018764593 0.108206056 0.10403758 -0.09382992 -0.040253658 0.25918564 0.039131414 -0.14890635 0.34553742 0.28220022 -0.254349 0.2402257 0.31345412 -0.1654548 -0.12257877 -0.11810199
not 0.21831295 -0.060131125 -0.00500376 0.26590347 -0.27057347 -0.061458718 -0.011272508 -0.18253505 -0.17677902 0.0010859531 -0.23129264 0.00609309 0.26018083 -0.0428598 0.009069876 0.07688664 -0.40266716 0.09699554 -0.06405702 -0.17179598 -0.21113439 -0.026869992 -0.35818025 0.01479074 0.13567384 -0.04005192 0.020220783 0.13160904 0.1427525 0.30418116 0.060278248 -0.005935363 0.072764136 0.1367755 -0.17392111 0.13197938 -0.45335257 -0.21105042 0.08928626 -0.07022383 -0.030567173 -0.28635064 0.18034245 0.15969165 -0.0044279704 -0.11148003 0.23121004 0.16946454 0.13181342 0.14629875 -0.08364068 -0.045205086 -0.019337934 -0.038039174 0.07773133 0.03981056 -0.16432275 -0.045082312 0.41096583 -0.4981552 0.0021050684 0.01857124 -0.0005235941 0.042132176 -0.15772249 0.19308865 -0.20356563 -0.05564201 0.06015751 0.20184612 0.34585866 0.112039044 0.2222373 -0.1764655 -0.08139762 -0.06211557 -0.0517476 0.085983634 -0.26906934 0.17517667 0.05776239 0.09749292 0.03770635 0.23268658 -0.10944838 0.14668068 0.02972746 -0.045916278 0.14869452 0.21322884 0.20247468 0.048839916 -0.02471948 0.03069574 -0.196586 -0.12354448 -0.11990173 0.0320519 -0.39407915 -0.17617048 0.1865133 0.07482137 0.04344867 0.02134839 -0.1683018 0.009561683 -0.06374194 -0.014775259 -0.1545388 -0.08343802 -0.08234039 0.12196551 0.10940723 0.14745876 0.05295827 0.071288474 -0.19361153 0.08147463 0.060917918 -0.13953456 0.16412422 0.025437744 -0.31287324 0.097804636 0.21748161 0.07710778 0.041831255 -0.13144973
really 0.034395345 -0.05464274 -0.06131016 0.34318662 -0.24185666 0.052452136 -0.093581006 -0.041737866 0.14224084 -0.11605512 -0.24584386 -0.004782955 0.26086587 -0.21835089 0.07449994 0.05464529 -0.29040438 -0.08760687 0.13876216 -0.30324164 -0.06826428 0.08991904 -0.12746471 0.09801288 0.09924545 0.046525598 -0.0046189195 0.2282928 0.0011514159 0.30270416 0.16959998 0.09530139 -0.014819967 0.12466335 -0.25101334 0.10567228 -0.2931181 -0.3235035 0.33270782 -0.23763311 -0.20747979 -0.39196134 0.13892724 0.048209723 -0.11452794 -0.060750414 0.08706289 0.09422125 0.10378802 0.42223236 -0.108940706 -0.057927974 -0.033613577 -0.06717457 0.05412964 -0.042069033 -0.36448288 -0.10219124 0.4889867 -0.4364303 0.13663672 -0.11429598 -0.2962647 -0.06279467 -0.096064575 0.27096462 -0.13877407 -0.04517242 -0.029272813 0.20851828 0.32550147 -0.06475978 0.19754653 -0.2382478 -0.064214565 -0.17001486 0.1570229 0.15183452 -0.097211026 0.3666565 -0.17916192 -0.04799652 -0.030211981 0.39327776 -0.16709785 -0.17614105 -0.087137245 -0.1386944 0.13351071 0.20745553 0.34516743 0.09638014 -0.06028541 -0.12312606 -0.11273302 -0.16278955 -0.10480074 0.19641463 -0.4751856 -0.07832742 0.05635583 0.13197286 -0.18746497 0.082763925 0.032258976 0.15462354 0.0573828 -0.08690349 0.07666455 -0.20448357 0.10842214 0.1399518 0.007229077 0.027729306 0.1771912 0.13044846 -0.063834675 0.09263653 -0.058637127 -0.09013103 0.0027951358 -0.09927539 -0.3518986 -0.17811646 0.082124054 -0.005390067 0.05752355 -0.09399474
see 0.15475419 -0.049119268 0.10429795 -0.19994436 -0.21644023 -0.15662749 0.015669635 -0.1160633 -0.13955016 -0.21188457 -0.12177567 0.031224314 0.3522949 -0.09932013 -0.009872986 0.18624221 -0.3584575 0.056604136 -0.28298151 -0.22462624 -0.26862803 -0.041131202 -0.21090525 0.14122711 -0.1731395 0.0077369707 0.012696181 0.2050349 -0.11133706 0.042295747 -0.07880914 -0.22453356 -0.009361904 0.32916436 -0.28346393 0.13972005 -0.16071996 -0.23588417 -0.07263239 0.030380799 -0.22756281 -0.42207292 -0.08291795 -0.14446767 -0.27767938 0.13898273 0.28092137 0.18150853 0.036872964 -0.016533058 -0.0570578 0.24935019 0.007349353 -0.00638607 0.090155296 0.048874065 -0.20787548 -0.19796965 0.25227925 -0.29999325 0.07648135 -0.294962 -0.0013465416 -0.15592179 0.10026427 0.16618122 0.25321496 -0.07885893 -0.39900115 0.01643212 0.13714498 0.24797896 0.09882868 -0.39102364 0.051687986 -0.10911401 -0.12816228 0.19022685 -0.23667428 -0.17648943 -0.25700217 0.09280661 0.04470066 0.05099341 0.31950378 0.16370314 -0.19758174 -0.18550771 0.3278429 -0.051113803 0.24140589 -0.42145953 -0.4519295 -0.12210611 -0.6148143 0.090046085 -0.2753495 0.09564554 -0.112660214 -0.13073465 -0.06455904 0.12461919 0.1537296 0.29016402 -0.28172362 -0.01730622 0.34743437 0.114009276 0.15830342 0.054910574 0.025386686 -0.1354458 0.21063006 0.11164393 -0.13410062 0.24104479 0.28947118 -0.13731794 0.482865 0.043201838 0.20055339 -0.02149798 0.0903669 0.014251044 0.23385 -0.18912545 0.0088937795 -0.096654646
are 0.34467378 0.024877409 -0.14172503 -0.07505038 -0.06660112 0.1989941 0.07528307 -0.047875185 -0.09283073 -0.27852577 -0.40274528 0.26862624 0.28055012 -0.17506823 0.12828648 0.10918726 -0.56040597 -0.1927299 -0.101017 -0.11606175 -0.33086514 -0.033997223 0.009936009 -0.16817163 0.06282575 0.11412087 -0.18424112 -0.15612248 -0.010144675 0.036988057 -0.078044824 -0.069007955 0.08184724 -0.04783522 -0.30920178 0.014533237 -0.09093182 -0.09590807 0.18809971 -0.13796447 -0.20696284 -0.66307193 0.14561416 0.0070628203 -0.115013346 -0.15600961 0.16520424 0.25447345 0.264231 0.10482191 -0.060009304 -0.019873885 0.18208331 -0.34401104 0.31273356 -0.49911803 -0.23824646 -0.1204384 0.40338707 -0.19289231 -0.04645915 -0.19761847 -0.15870234 -0.23502077 -0.07642526 0.25885913 -0.12320974 0.1550563 -0.066425666 -0.1451999 0.510264 0.11702856 0.08628039 -0.30477414 0.08733155 0.19069721 0.18292105 0.03308018 -0.021834515 -0.025580056 0.19579385 -0.12589723 -0.12633274 0.26421118 -0.049221367 0.25100702 0.15928991 -0.08596421 0.07247181 0.06198202 0.058791816 -5.7018126e-05 -0.097488366 0.2288827 -0.22982156 0.093663156 0.18237892 0.052278653 0.081476405 0.029726045 -0.110605925 -0.19713993 -0.2602748 0.20850979 -0.22923161 -0.042873897 -0.04807433 0.11389645 0.17497005 0.30684158 -0.054562572 -0.0022484427 0.04305169 0.10451193 0.1843423 -0.052139957 0.16877693 0.0064469757 0.3268238 -0.22564793 0.053382218 -0.12154109 -0.051898524 0.10701554 -0.114486955 -0.1178054 -0.06359944 0.13484783
can 0.36543384 0.017403794 0.25094002 0.3535073 -0.1410753 -0.06655056 -0.01777454 -0.43332174 0.22356045 -0.29431766 -0.14195122 0.21668366 -0.040527277 0.13961723 -0.05814892 -0.11151268 -0.18495043 -0.14911567 -0.14603052 -0.15843976 -0.1776582 0.28575918 0.011088902 0.117974795 -0.18739834 0.016032437 -0.05251309 0.0105080055 0.07045705 -0.18375005 -0.1195583 -0.10709104 -0.14546491 0.14859387 -0.31881115 -0.15618521 -0.24303 -0.27003485 0.45644477 -0.021410383 0.005394267 -0.46299824 0.36080098 -0.1403513 -0.16979972 -0.16966608 0.22927085 0.13672727 0.16453236 -0.049486753 0.06820284 0.024138594 0.19847202 -0.056025624 0.005587404 -0.124249265 0.113751404 -0.43162882 0.16153097 -0.33611953 -0.029860932 -0.23743415 -0.11259395 -0.04311871 -0.05973323 0.2969259 -0.024834238 0.025439577 -0.21488862 0.1710172 -0.09179927 0.22048904 0.04214574 -0.14853786 0.18798761 -0.19719386 0.08880349 0.081535295 -0.07678817 -0.017487941 -0.21424884 -0.09800044 0.0048575215 0.37050697 -0.046403505 0.27891383 0.014622198 0.06644189 0.11196462 0.20876177 0.19646119 -0.3327086 0.11743078 -0.18338884 -0.25472972 -0.19623704 -0.114610225 0.19273865 0.028661445 0.0013620408 -0.10521028 0.08006029 -0.16864519 0.25881186 -0.21225987 0.0912675 0.53052527 -0.1573193 0.18502297 0.21995524 -0.1519435 -0.13335912 0.28461546 0.04907525 -0.15455551 -0.10543127 -0.101983584 0.27004972 0.48326418 0.044114556 -0.16101125 0.32779947 -0.09142914 0.08960413 0.1463903 -0.10712057 0.01662817 0.0113317175
know 0.40417245 -0.032921273 0.0554068 0.053369 -0.26497316 0.009957032 0.076832496 -0.08985416 0.061985526 -0.09386812 -0.2970068 0.06816077 0.18160735 -0.24261132 -0.023902707 -0.033105414 -0.30084065 0.13263598 -0.012842339 -0.13571747 -0.19983652 -0.0025457875 -0.15596083 0.1469296 0.060763676 -0.1524384 0.14451392 -0.09762312 -0.007209514 0.11217791 0.022873878 -0.14149982 0.09526585 0.17392713 -0.16432695 0.28706035 -0.31861696 -0.18434986 0.05703178 0.074870475 0.14872356 -0.45614645 0.34611762 0.069429405 -0.035388954 -0.25187978 0.15966329 0.034256537 0.029734563 0.09955576 -0.2320851 0.061492536 0.3608734 -0.08549949 0.20560056 0.14611952 -0.009345392 -0.18601574 0.31206527 -0.48788384 0.09573845 -0.34263158 0.051857974 0.13461412 -0.14187402 0.26652068 0.16785944 -0.23273353 -0.20578824 0.2262814 0.09411832 -0.088082746 0.19173484 -0.2871275 -0.18054488 -0.16400932 -0.14103794 0.2522119 -0.42151034 0.0056579565 0.14301956 0.10318753 0.03893179 0.45924112 0.15624978 0.028784184 -0.12939663 0.04201186 0.18632388 0.058106724 0.20463921 -0.027732937 -0.19908258 -0.06169287 -0.23964548 -0.05938452 -0.0056844433 -0.08381101 -0.10744333 -0.16795972 0.24530022 -0.078619465 0.010305456 0.04131961 -0.15037921 0.10262886 0.099590525 -0.1593808 0.04049219 -0.0029559415 -0.123097114 -0.12817195 0.10399595 0.063392945 -0.111745656 0.1538358 0.16426617 0.24379614 0.4999464 -0.37090525 0.021257104 0.1019489 -0.16527309 -0.07266355 0.18026091 -0.24090761 0.08762151 -0.18127277
ll -0.121933706 0.06876908 0.10046098 0.21669436 0.18892303 -0.041676503 0.10763665 -0.15055162 0.18774037 -0.12262759 0.13597842 0.12552471 0.045625858 0.12654573 -0.15616421 -0.081582144 -0.23894496 -0.11173395 -0.195802 0.0056320042 -0.17688867 0.0812659 0.066731945 -0.015306253 -0.034242105 -0.0506644 -0.14947532 -0.20037295 0.074479535 -0.0023979654 -0.08890669 -0.18460411 0.051687893 0.39561206 -0.04075385 -0.10706099 0.016284019 -0.25488752 0.3268485 0.10823094 -0.12187247 -0.5943336 0.14511204 -0.05556026 -0.3634345 -0.054657873 0.3123787 0.30660266 0.016041344 -0.016784491 0.07000094 -0.099382974 0.25640738 -0.15348504 -0.0018820595 -0.1708188 0.15550375 -0.5036308 0.17929122 -0.39564094 0.009748409 -0.3065518 -0.29459447 -0.031035442 -0.1499249 0.31408828 0.04485728 -0.01868565 -0.23213111 0.07378296 0.029894557 0.39936954 0.25088552 -0.31089795 0.3124981 -0.0075521423 -0.15663737 0.25215974 -0.1872632 0.06865165 -0.11144749 -0.11206748 0.10385427 0.25332665 0.048239242 0.29616776 -0.20228039 0.16336524 0.2671253 0.0029657637 0.27468836 -0.4551403 -0.111514315 -0.041595344 -0.2774994 -0.007562275 -0.17998527 0.26547706 -0.032773994 0.033706438 -0.22898856 0.1658252 -0.063650444 0.40462497 -0.50095356 -0.019891266 0.37003833 -0.30727255 0.21038415 0.35619056 -0.2433206 -0.11244029 0.14484112 0.10290524 -0.41922277 0.20827574 0.058747184 0.096434325 0.5943106 -0.09323899 0.22333327 0.30287647 0.012282513 0.26514247 0.37390342 -0.00934208 -0.1473429 0.18644589
all 0.35975748 -0.08003262 -0.031178795 0.1819521 -0.17538695 -0.09535809 -0.07586774 -0.2722909 -0.15118639 -0.17861937 -0.08143577 -0.10771106 -0.07480493 -0.14240423 0.088251315 -0.0125136 -0.22719736 -0.19618163 -0.046327718 0.02634933 -0.19030915 0.13090259 -0.09685943 0.16002874 -0.009392822 -0.10622543 -0.03419847 -0.14189693 0.04445863 0.07014763 -0.16875504 -0.011724422 -0.0035669128 0.33968416 -0.22395353 -0.23942661 -0.49443865 -0.02721355 0.35472167 -0.121540934 -0.19032483 -0.4191865 0.0741552 -0.047274135 -0.0060496894 -0.04889421 0.24236783 0.23952812 0.34172884 0.1267017 0.022384573 -0.014001936 0.16420594 -0.29747123 -0.028977811 -0.14460498 -0.015621106 -0.09956656 0.17525874 -0.14973205 -0.028236888 -0.16891252 -0.16659337 -0.1956944 -0.07043376 0.32866275 -0.06950041 0.018550262 -0.11412355 0.058294684 0.009632561 0.11707146 0.058345206 -0.04651211 -0.12847637 0.049361583 0.102033354 0.079790615 -0.13293506 0.13584974 -0.10532342 -0.088032216 -0.026473016 0.3848417 0.0924756 0.11287703 -0.14703462 -0.07427284 -0.04000358 -0.04437747 0.056693073 -0.16990335 -0.031417068 0.14461736 -0.26649046 0.024760999 -0.030599846 0.1304431 -0.16320398 -0.076012895 0.19169126 0.18682991 0.00410389 0.17214632 -0.018018724 -0.07045927 0.08729853 0.1901589 -0.012927869 0.21493572 -0.18175894 0.047952514 0.09712318 -0.02698228 -0.21164139 0.0651673 0.08521536 -0.021147924 0.3044918 0.11759267 0.06452465 0.011141915 -0.06290786 0.13078544 0.15377489 -0.045191396 0.20943432 -0.102974944
up 0.12770613 -0.03913251 0.09971033 0.19051346 -0.15593955 -0.18284152 0.05266334 -0.053532545 -0.1800693 -0.231248 -0.09702945 0.1452653 0.02780992 -0.038896967 0.048242424 -0.0243116 -0.2759489 -0.03424465 -0.054587945 -0.110777065 -0.28379172 0.09551751 -0.09098248 0.09873503 -0.10737798 -0.1266783 -0.035485674 0.04440117 0.09904373 -0.018979596 -0.025388544 -0.020779504 0.016340116 0.14510691 -0.19922781 -0.1728122 -0.12916167 -0.13592935 0.16923986 -0.18588936 -0.101427846 -0.38261136 0.08576501 -0.058588598 -0.24121307 0.049477946 0.21350981 0.16340807 0.31210184 0.0918638 0.0035285896 0.08098499 0.19089839 -0.24011798 -0.03818364 -0.044367366 -0.07433686 -0.13394521 0.18237159 -0.29393315 -0.0069523435 -0.1764636 -0.24623884 0.014773126 -0.04064365 0.1591577 -0.06415812 -0.057827387 -0.0716358 0.073747665 0.045370255 0.389882 0.2929466 -0.090124704 0.070378676 0.0149526205 0.087763436 0.120013386 -0.20085973 0.2695575 -0.12654509 -0.08863613 0.058252677 0.32462102 0.041590538 0.25448284 -0.14091685 0.041968957 0.06172907 -0.08915011 0.025083534 -0.12922716 -0.0049578454 0.09145701 -0.124011196 -0.009523774 -0.18299842 0.04785784 -0.10861776 -0.13427842 0.020299628 0.23121618 0.13989171 0.075022 -0.12356922 0.0537718 0.060655575 -0.16858548 -0.09832849 0.07047783 -0.08621178 0.08882324 0.083638944 0.08454859 -0.1652183 0.1271787 0.16059107 0.059622433 0.25949413 0.023880562 0.106087424 0.16962537 -0.069794245 0.09503225 0.24068443 -0.12257529 0.028202953 -0.020793982
out 0.1304595 0.10569653 -0.006177539 0.21904397 -0.00712001 -0.15347213 0.06520331 -0.23970784 -0.10781797 -0.060566965 0.24014324 -0.032352433 -0.070272304 -0.07921881 -0.26905054 0.10536132 -0.23686485 -0.08287587 -0.19416574 -0.082633145 -0.25251952 0.18269338 0.06828265 0.14125408 0.025762876 -0.02342717 -0.07960267 -0.14694592 0.121940024 0.092323415 -0.16842149 0.008502357 0.11406624 0.21867141 -0.19807903 -0.09318612 -0.31425413 -0.18523091 0.38843757 -0.15816168 -0.19349977 -0.48205042 0.20219837 -0.17903903 -0.20994382 -0.019139884 0.100976296 0.0707972 0.09197062 0.2600562 0.015688173 -0.080331266 0.16272086 0.015610519 -0.029539218 -0.052154467 0.10517521 -0.12890686 0.14217044 -0.30410773 -0.13641495 -0.22680016 -0.3123275 -0.063402265 -0.10054028 0.22114109 -0.110264845 -0.0052057346 -0.20212083 0.1522739 -0.053390272 0.1609088 0.25242904 -0.3234485 0.050165188 0.07091175 -0.10429939 0.096589856 -0.11524588 0.27901193 -0.400665 0.039735224 0.1451976 0.2670357 0.16107066 0.15989885 -0.2873567 -0.04506511 0.15251045 0.01644438 0.30404314 -0.18974702 -0.09762097 -0.02843626 -0.27256322 0.06682707 -0.23537335 0.21478595 -0.24900658 0.058384147 0.1579318 0.22689058 0.16375472 0.22355843 -0.14434694 0.086701855 0.22554031 -0.07744445 0.064431734 0.08197135 -0.12368937 0.010886369 -0.0453165 -0.10767454 -0.21748707 0.16725504 0.24735175 -0.030940214 0.15805747 -0.04664976 0.08057489 0.25186372 -0.035048842 0.095470734 0.30259484 -0.18137947 0.11381681 -0.01510785
do 0.17342557 0.049398206 -0.09403644 -0.038738795 -0.08683567 0.005567651 0.015302321 -0.04691002 -0.010364912 -0.08698655 -0.1437578 0.07661359 0.22335693 -0.1785562 -0.12676618 0.01638869 -0.26938632 -0.011512379 0.009904495 0.030563664 -0.24037735 -0.044213474 -0.12193988 0.029675016 0.04977251 -0.14979135 0.12784916 0.0667606 0.041065216 0.32856798 -0.07565667 -0.04158081 0.15764843 0.1755216 -0.1774945 0.19261508 -0.32106653 -0.06492999 0.11824947 -0.034391448 -0.17636177 -0.43029767 0.30011654 0.042220224 -0.21255405 -0.11843958 0.16499726 0.17870834 0.0020921512 0.07786761 -0.2005341 -0.085295156 0.07760252 -0.0669353 0.013180758 -0.08218431 -0.02341248 -0.16951644 0.3587717 -0.40964872 0.046832487 -0.29936948 -0.081620686 -0.002984445 -0.1006155 0.24376903 -0.023342028 0.023172073 -0.17866366 0.12055535 0.18790747 0.18770383 0.26153892 -0.15861468 -0.054679483 0.15264139 -0.042523973 0.15149274 -0.30532485 0.12832391 -0.017285563 -0.032474514 0.11692631 0.35517564 -0.06406494 0.07377166 -0.11806613 0.12573965 0.34153423 -0.020750258 0.37194222 -0.12595452 -0.2552358 -9.463429e-05 -0.26525778 -0.035130624 -0.12607296 0.07651218 -0.20037085 -0.11937422 0.14295876 0.14927553 -0.022090398 0.15009798 -0.07717639 0.032868292 0.018074222 -0.04217103 0.08602678 -0.099645406 -0.0969874 -0.058540225 -0.0063409065 0.053724658 -0.06734797 0.1276488 0.104410335 -0.07474819 0.17824757 -0.26484773 0.20284188 0.20932463 -0.022155905 0.09050712 0.2879065 -0.17919281 0.022386981 -0.06720369
as 0.1860022 -0.1783115 0.17752741 0.112860076 -0.106559195 -0.018769432 -0.21691172 -0.34468848 0.06724314 -0.16176806 -0.2883416 0.39984047 0.3162784 -0.06662067 0.1311297 0.34457642 -0.23369437 -0.20601481 -0.10943481 -0.38192707 -0.080771916 -0.25224063 0.014263278 -0.04529926 -0.20555072 -0.016341468 -0.03313146 -0.09512409 -0.00074725924 -0.07442985 -0.0991016 0.07524084 -0.117700696 -0.05300649 -0.26598927 -0.17349555 -0.07308173 -0.31666034 0.18650697 -0.13567148 -0.31481567 -0.33573502 -0.19060405 -0.25471407 -0.18808731 0.08689239 0.07525728 -0.15834755 0.34830627 0.09330767 0.058470234 0.12816674 -0.07477013 0.19477867 0.12678304 0.14286664 -0.12679237 -0.17746334 0.036255512 -0.60056615 -0.026460234 0.06290802 -0.12288252 -0.00915312 0.17849211 0.37885702 -0.0038781804 -0.10693148 -0.12145924 0.2830937 0.2435337 0.017954275 0.23676558 -0.30693054 -0.0035637561 -0.031020308 -0.12843132 0.031867113 -0.28365618 -0.0024762864 -0.2646973 -0.17459245 0.2559258 0.1529577 0.18753496 -0.16324815 -0.033444654 -0.24701968 0.019982252 0.21822438 0.45070663 -0.23754197 0.08164715 -0.09329474 -0.17788815 -0.0039042018 -0.04245695 0.24400526 -0.08144703 -0.29879174 -0.21796554 0.32015747 0.024860794 0.07604305 0.039795693 -0.10870451 0.11519566 0.01742853 0.2257046 -0.07089433 -0.13304855 -0.017804423 0.14516586 0.2519159 0.2469284 0.05217058 -0.052142352 0.319324 0.34692493 -0.066693254 0.15031537 0.53310025 -0.15303151 0.19528468 0.5183978 -0.13839333 -0.19739722 -0.07109378
don 0.27287346 0.009388282 -0.053657882 0.1632978 -0.060573194 -0.07010877 0.010282097 -0.21962748 0.16122171 -0.26223946 -0.12365413 0.10150266 0.18690531 -0.10816304 -0.082320884 -0.13743448 -0.20558462 0.03359438 -0.0632959 -0.021242775 -0.03640381 0.18147019 0.019523287 0.3147761 -0.07258738 -0.25707835 0.120189846 0.14741056 0.1343635 0.13327162 0.081778646 -0.24717931 0.0665424 0.36682793 -0.13432495 -0.009431818 -0.7737299 0.02102407 0.19889146 -0.08314846 -0.13937293 -0.54400694 0.48690826 0.13063453 0.15577792 -0.2771442 0.20241879 0.23852111 0.11602535 0.2627409 -0.15292056 -0.009685005 0.38027635 -0.16172047 0.10458225 0.086926505 0.026083536 -0.334174 0.26752195 -0.5104243 0.065142125 -0.26608253 -0.056120638 0.022033308 0.0072086053 0.25965846 0.15188853 -0.3051569 -0.10543589 0.16162893 -0.1590985 -0.051218767 0.24170974 0.14935316 0.031431038 -0.14536753 -0.08435419 0.22030003 -0.09371271 0.05770442 0.10674231 0.14931145 -0.14193387 0.41079137 -0.0099105025 -0.15898259 -0.19605976 0.21975587 0.20626888 0.15895149 0.29293704 -0.16554262 -0.22107965 -0.12777571 -0.08951718 -0.25784075 -0.002212428 0.023765232 -0.14695986 0.107190564 0.27924415 -0.087663986 -0.07854706 0.27411893 -0.0738582 0.056509394 0.20426042 -0.24363047 0.2626306 -0.14515011 -0.11516836 -0.08171204 0.19005398 0.051375475 -0.06011349 -0.13131823 0.065226905 0.39542523 0.5385352 -0.19962017 -0.15039015 0.2369618 -0.17620574 0.071328774 0.28371513 -0.09397924 0.12248278 -0.1186667
with 0.29728696 -0.07288287 -0.043132495 0.14458743 -0.091622084 -0.016317006 0.081168115 -0.03141617 -0.019731544 -0.24840014 -0.26508912 0.27006647 0.02691611 -0.11083339 -0.07290849 0.13042249 -0.18205331 -0.08306054 0.022159727 0.002805062 -0.14577667 0.04807199 -0.06427797 -0.08609355 -0.089046486 0.06733683 -0.051238265 -0.0032051748 0.025129426 0.13883442 -0.034348328 0.07880724 -0.00047984088 -0.11586824 -0.07785933 -0.2421256 -0.17798468 -0.09033883 0.19747075 -0.08011767 -0.12615469 -0.4602942 0.12592582 -0.040232264 -0.10878375 -0.0439505 0.041675583 0.13059326 0.0871024 0.028122326 0.038714197 0.024292128 0.21416463 -0.19454345 0.10640378 -0.16821674 -0.12708475 -0.1376674 0.2839083 -0.11058251 0.06617682 -0.08863594 -0.2592986 0.0003587726 -0.057125382 0.25907224 -0.1216763 -0.005401623 -0.03407193 0.07996256 0.26492143 0.14557306 0.1692315 -0.12294782 0.04623451 -0.02166986 0.16937849 0.118520066 -0.20033523 0.08758464 -0.13661368 -0.15334268 -0.008710224 0.406021 -0.04389083 0.05449683 -0.073619634 0.21349603 0.116990484 -0.06918433 0.09341136 -0.038657654 0.10138418 0.044510774 -0.23673372 -0.087326035 -0.10522864 -0.100768685 -0.03623454 -0.0011238549 -0.13174133 0.027717598 -0.1541242 0.19252871 -0.046183072 0.124486096 0.12341451 -0.07891595 -0.08727594 0.09626767 -0.010200666 0.14171119 0.034454703 0.008666148 0.015851442 0.0735425 0.11805969 0.04406494 0.03735797 0.08396684 0.13063407 0.246989 -0.18711887 -0.050210416 0.16116972 -0.11166222 0.012095502 -0.094053246
at 0.33143702 -0.18869753 0.16881296 0.26875588 -0.34111878 -0.23153299 -0.050761502 0.07889201 -0.3472989 -0.18349615 -0.055200584 0.4351124 -0.09183647 0.16160172 -0.1370228 -0.0070251436 -0.107029796 -0.1751411 -0.14913724 -0.09726896 0.1036354 0.14412421 -0.24051377 -0.07295476 -0.11195613 -0.19474657 -0.13304509 -0.115825474 0.23226209 0.13338347 0.116725914 0.07106249 0.11192087 0.06753547 -0.10748528 -0.34000552 -0.3487475 -0.18116254 0.15894394 -0.034882642 0.14731532 -0.44079128 0.13337219 0.06437504 -0.30689287 0.006153532 0.14026482 0.06844421 0.16789919 0.20152688 -0.04451714 0.156185 0.4004947 -0.4339034 -0.014541943 0.13805696 -0.027632562 0.042817004 0.18797745 0.027463436 0.17155552 -0.16030264 -0.486245 0.035251826 -0.17096084 0.34985465 -0.024505574 -0.14856741 -0.12077605 -0.103290595 0.2663787 0.3744567 0.3399609 -0.029818371 -0.12341628 0.04111416 0.09383413 0.19798255 -0.041665997 0.12114466 -0.040804487 -0.16350812 0.11825801 0.4784996 0.1337237 0.19246207 -0.11135942 -0.0051491084 0.04229538 -0.097811304 -0.06047178 -0.061124932 0.032008357 0.11840234 0.021613333 -0.050500423 -0.1807433 -0.12385838 -0.047649775 -0.053580157 0.0056373593 0.08559837 -0.006214569 0.109918274 -0.19494613 0.07947684 -0.11574232 -0.1518756 -0.12973018 0.20412043 -0.15600948 0.22471048 0.07107166 0.04243083 0.04371267 0.19964162 0.09047308 0.062083956 0.12551746 0.17889076 0.08967222 0.27786654 -0.08344931 -0.014927145 0.042756952 0.014416658 -0.036246162 -0.06357581
good -0.04778105 -0.12702757 -0.07012246 0.25481045 -0.17808026 -0.035172474 -0.14504384 0.030256918 -0.023488026 0.10159067 -0.07001272 -0.13857763 0.13266535 -0.050773963 0.008047733 0.11598853 -0.35411906 0.08232831 -0.18773654 -0.20195526 -0.017505808 -0.09228389 -0.08914037 -0.00948188 0.15235353 0.22885612 -0.074360445 -0.02650472 0.013067804 0.21131338 0.3901392 -0.081003174 0.084414005 0.17844766 -0.15602843 -0.07116444 -0.23166531 -0.36140546 0.07858265 -0.117612444 -0.18499453 -0.49478045 -0.13686097 0.19875903 -0.27730933 0.089162 0.21762244 0.14081633 0.02622325 0.46557045 -0.030932901 -0.1458721 -0.024718262 -0.20171613 0.20605233 -0.0733842 -0.2923759 -0.09917183 0.40759066 -0.33232656 0.26772058 -0.033276673 -0.19293725 -0.05419293 -0.07298365 0.24588235 0.016474435 -0.03292814 0.17819421 0.13132757 0.20179129 -0.1946609 0.27326098 -0.3678721 -0.004462826 -0.3627433 -0.13097458 0.24018703 -0.28194532 0.29018736 -0.09464481 0.07083335 0.053113434 0.3368194 0.0476888 -0.014649235 -0.17588139 -0.3053696 0.08107751 0.28524455 0.25351012 0.027859643 -0.06565645 0.055689383 -0.28432974 0.18771294 -0.08624391 0.12667911 -0.36820933 0.032654807 0.02565068 -0.004404043 -0.23081164 0.0970761 -0.4715576 0.16911425 0.10160525 -0.022308595 0.11280166 0.17117979 -5.0873165e-05 0.13107076 0.16897836 0.14512768 0.11457613 0.16264877 0.00025486934 0.119869545 0.093716905 -0.10040723 0.30791453 0.006641825 -0.19120494 -0.1235311 0.22895594 0.034719758 -0.000649617 -0.14828208
ve 0.16480364 0.14995416 -0.10814515 0.13319877 -0.038959537 0.14127 -0.07794187 -0.24125412 -0.097362064 -0.1675731 -0.3684276 0.52123606 0.20619284 -0.41649944 0.1392167 -0.03056458 -0.27738923 -0.33219802 0.10223516 -0.47273844 -0.11901972 0.19931681 -0.45075643 -0.06305896 0.042152815 0.11675077 -0.03341043 -0.41069585 0.04272206 0.13406897 -0.13056998 -0.24315278 0.020229738 0.16515692 -0.39688367 -0.3627011 -0.27967352 0.28536928 -0.12714751 0.34131232 -0.28130436 -0.24292777 0.35588193 -0.026013695 -0.034831125 -0.18705766 0.36724398 -0.20149691 0.13485494 0.029377801 -0.4433639 -0.28927553 0.3676385 -0.3412346 -0.0525816 -0.05662842 0.20575337 -0.09557332 -0.10445279 -0.051206686 0.09575628 -0.23856567 -0.017107219 -0.13981962 -0.32352206 0.62633955 0.21508914 0.3034004 0.046629786 -0.029412065 -0.06833893 -0.10802577 0.091897205 0.14488354 -0.15602224 0.044402722 -0.36526987 -0.0108981095 0.2612335 0.60821384 0.03613335 0.2127008 -0.031724293 0.34249833 0.044989415 -0.24562852 -0.23809008 0.04033614 0.16889964 -0.13679713 0.13205576 0.056923036 -0.024044055 0.26095343 -0.1835956 -0.0641514 -0.018608432 0.32563892 -0.21256196 -0.097246185 -0.098956764 0.14383736 -0.12152846 -0.117969535 0.19365755 0.113526486 0.056976486 -0.16250761 0.018566271 0.10305665 -0.17081286 0.17058627 -0.103589214 -0.09575226 -0.20300539 0.40825605 0.050260235 0.19854793 0.45320168 -0.25063032 0.2206435 0.4470503 -0.16094138 -0.079191245 0.71557605 -0.15467913 -0.21797718 0.013380458
what 0.3143694 -0.029957116 -0.016479177 0.21702197 -0.17699973 -0.17864469 0.08156082 -0.22012314 -0.1649559 -0.079919845 -0.1380973 0.11129573 0.22563416 -0.17135987 -0.13761091 0.11258386 -0.5117639 0.01937527 -0.18511365 -0.05621733 -0.24790533 -0.013221584 -0.24316154 0.11414657 0.004612223 -0.1836236 -0.03744638 -0.045651894 0.15556833 0.2128232 -0.02868818 -0.2610213 0.15184075 0.47879496 -0.0502655 0.21739504 -0.3546503 -0.17028011 0.017261969 0.0020903912 -0.004284529 -0.30212438 0.0800035 0.21466266 -0.1064048 -0.10033208 0.25498337 0.2041011 -0.09520017 0.08921862 -0.041048117 -0.028571002 0.14068806 -0.04227606 0.065564245 0.19920063 0.16817623 -0.20225626 0.32672313 -0.5045954 -0.04831396 -0.07837745 -0.055939104 0.083032906 -0.093095124 0.1421046 -0.015841762 -0.28085837 0.032335315 0.12668523 0.002869134 0.027710889 0.33381394 -0.1964528 -0.010512252 0.12988886 -0.26044896 0.13219105 -0.3998081 0.04182576 0.16897912 0.06329997 0.12450519 0.22585128 0.065310925 0.061924066 -0.13695972 0.0137113165 0.17555441 0.054287687 0.26872316 -0.13198014 -0.28988865 0.10600256 -0.26493415 0.017530842 -0.07861599 0.036273103 -0.13787171 -0.109079994 0.23753648 0.032734096 0.03766179 0.12172062 -0.27473956 0.042458046 0.0112954555 -0.027387824 0.020859638 0.072807275 -0.105924234 -0.16635248 0.13676032 0.15605956 -0.21438318 0.14782979 0.018280972 -0.024628056 0.2960463 -0.19415323 0.16145849 0.020159338 0.013775521 0.12489951 0.25157863 -0.097456075 -0.031348567 -0.036425218
some -0.090059966 0.069023125 -0.1425364 0.14569195 0.11637957 -0.037785467 -0.11119225 -0.050937306 0.009715119 -0.23101734 0.12622707 0.022659346 -0.03994806 -0.07981549 -0.08573729 0.030020706 -0.23354502 -0.17061205 0.09678367 -0.07088571 -0.2006564 0.018317418 0.25496036 0.0792195 0.03009882 0.16127533 -0.12018478 -0.109965324 0.10344663 0.107933834 -0.0071475655 0.1204918 0.057187676 0.100481585 -0.27661118 -0.281758 -0.19796745 -0.124519676 0.4096289 -0.35400632 -0.43463773 -0.5307831 -0.021748427 -0.060971525 -0.30065134 0.022022087 -0.11588948 0.2671534 0.25439382 0.33990625 0.008626548 -0.32185307 0.120191485 -0.17130329 0.023853382 -0.32273299 -0.23664908 -0.23850764 0.2913562 -0.34078786 -0.011738962 -0.2687236 -0.44478032 -0.08594433 -0.031180836 0.25390425 -0.12613125 0.020832853 -0.11804414 0.09077643 0.10849134 0.10132984 0.29667628 -0.19939438 0.16534694 -0.08450419 0.13766292 0.20302671 -0.25368246 0.41536656 -0.20240366 -0.22027703 -0.00816801 0.5036315 0.0077261347 0.08639897 -0.33766893 -0.033885926 0.04601934 0.059838187 0.22133607 -0.21788016 -0.0034466486 0.089360304 0.056397315 0.024281591 -0.115901455 0.19731161 -0.08644537 0.08171947 -0.13196808 0.10617389 -0.28583688 0.24299186 -0.07745623 0.059974663 0.12393807 -0.11379714 0.2506045 0.17877804 -0.06846933 0.070605345 -0.05054459 -0.07711174 0.10690713 0.030368412 0.1738304 -0.0121090105 0.10719373 -0.003620797 0.04583811 0.19980973 -0.07926341 -0.079792626 0.117769174 -0.047856577 0.052254725 0.12427051
because 0.15187137 -0.031819016 0.041458942 0.27809712 -0.14464088 0.027919644 0.013254715 -0.02527816 -0.06978261 -0.14790052 -0.2540031 0.17256215 0.18511552 -0.025982179 0.026092554 0.036893595 -0.256785 0.049605288 -0.00927294 -0.06979102 -0.15424894 -0.0090181455 -0.20969254 -0.005236735 0.008378367 -0.033151373 0.005742353 0.0018533096 0.08325178 0.22633365 0.04956928 -0.04939516 -0.012518632 0.14577894 -0.09324167 -0.087249726 -0.35653377 -0.12864986 0.062035326 -0.08138337 -0.11783121 -0.41687077 0.22633335 -0.008933995 -0.054843623 -0.07723039 0.13631527 0.16588537 0.114445575 0.0046341605 -0.11050385 -0.0007015826 0.17298263 -0.16917814 0.03599156 0.028399691 -0.07574528 -0.05455216 0.2580481 -0.33292168 0.013259264 -0.08039586 -0.13771315 0.08284899 -0.17637867 0.26735955 -0.059309 -0.08530707 -0.03276118 0.14734864 0.264531 0.12830731 0.2794072 -0.049445618 -0.041685496 -0.023196949 -0.0630564 0.15480176 -0.18367471 0.17654413 0.022053977 -0.021034885 -0.0025512169 0.35911864 -0.09897079 0.023504302 -0.09778748 0.13048881 0.12831074 0.07799381 0.1232728 -0.007908569 -0.055277277 0.024284463 -0.09906547 -0.14161064 -0.13167949 -0.021072775 -0.22294483 -0.043505426 0.057043508 0.07802857 0.046285342 0.09074677 -0.052356504 -0.0010972325 -0.046108384 -0.17300089 -0.13330205 -0.07631009 -0.041904386 0.10508215 -0.041039582 0.060300265 -0.018681778 0.14519909 -0.037555613 0.15254276 0.14891653 -0.10631937 0.07258109 0.14671922 -0.17256385 0.045901563 0.28451943 0.020282049 -0.006854932 -0.041104916
which 0.20615998 0.042002883 0.2155396 0.2662495 -0.23785038 -0.029684896 -0.001052521 -0.31796938 -0.2087648 -0.22427031 -0.2557124 0.30589107 0.1550684 -0.15007743 0.06306134 0.08256749 -0.23983881 -0.13820136 0.01895973 -0.231184 -0.21798758 -0.015474936 -0.11995476 0.13739465 -0.11778411 0.028935494 -0.23242716 0.1005541 0.08881457 0.07051029 0.033667702 0.08889137 -0.0846629 0.12076709 0.02114693 -0.07496792 -0.16142443 -0.2674275 0.033073492 -0.14043176 -0.106663026 -0.12234374 -0.009534425 -0.1528876 -0.059788525 0.019580668 0.10310936 -0.045615766 0.17071533 0.1907833 -0.0105549 0.16903773 0.07781119 -0.09722498 0.01685476 0.19936298 -0.20705327 -0.31876814 0.5582709 -0.40824187 0.020350376 0.21336798 -0.27053002 0.007180359 0.0399536 0.059360072 0.16469888 0.14198332 0.0007953158 0.039941367 0.12776627 0.08127706 0.22364463 -0.03706408 0.046031352 -0.0033059688 -0.011118467 0.075174026 -0.038199857 0.13258384 -0.17909905 -0.017046353 0.06917652 0.34028298 -0.04911754 -0.06156293 -0.038316626 -0.109193236 -0.0444858 -0.05442455 0.13648574 -0.13442771 -0.21025 0.17598006 -0.3315667 0.011726328 -0.008613689 0.08714377 -0.31927258 -0.12756237 0.049486104 -0.04286991 -0.056440957 -0.039580733 0.03081444 -0.00074441993 0.032223593 -0.18626335 -0.09318855 -0.16159499 0.09953525 0.26162514 0.20461474 0.13320933 -0.10662013 0.07792038 -0.1942954 0.008003168 0.13138956 0.097089365 -0.07358377 -0.028720507 -0.16175875 0.068240404 0.070586726 0.12307269 0.03671363 -0.17923613
about 0.2604894 0.027148036 0.02086483 0.14906637 0.078096375 0.051906034 0.08993377 -0.15141967 -0.14767548 -0.23100516 -0.3461525 0.25721437 0.24036498 -0.12757748 -0.18825662 0.14626348 -0.3763859 0.1417631 -0.053768758 0.07945185 -0.2578947 -0.15716694 -0.3139941 0.0029399693 0.010908086 0.05329259 0.05872129 -0.038977414 0.2175637 0.39124933 -0.05797466 0.02465805 0.07808692 0.024074074 0.040043436 -0.041475162 -0.27683648 0.017673908 -0.072721235 0.004663302 -0.11259734 -0.32572433 0.1951419 0.03202632 0.06291226 -0.13205916 0.014367705 0.085797325 -0.122387044 -0.119122274 -0.057858735 -0.05875486 0.20476411 -0.23155148 0.12499175 0.046197046 0.0025671886 -0.09905829 0.21388899 -0.16547436 0.00063938234 0.033758517 -0.0143504655 0.108775124 -0.1256137 0.21021831 -0.02479948 -0.08575566 0.0053852606 0.10711293 0.2315562 0.15022059 0.29124072 -0.058904003 -0.1072554 0.0042498405 -0.2508056 0.013282227 -0.20201766 0.030868202 0.100889295 -0.02363856 0.068873666 0.2828688 -0.14226559 -0.018142337 -0.15330712 0.2299937 0.24719182 -0.077369705 0.08635344 -0.060125794 -0.02881781 0.16429085 -0.18167432 -0.12970632 0.01407785 -0.2664563 -0.07777479 -0.13839169 0.070085235 -0.052814536 -0.026517149 0.06556153 -0.09535732 0.023740657 -0.011800422 -0.21988371 -0.09003913 -0.023879051 0.022468396 0.14790876 0.08688458 0.075815715 0.055248477 0.11714144 -0.09424643 0.035059493 0.16681696 -0.025318436 0.22353446 0.39205486 -0.12873909 0.08089918 0.25778076 -0.14664929 -0.09102552 -0.14643286
got 0.05487117 -0.017355165 -0.16179238 0.3296522 0.031115478 0.097345345 0.047697008 0.027488079 -0.00023799487 -0.10616232 -0.2620134 0.09948202 -0.19874957 -0.021331169 -0.04819924 0.12770897 -0.0081175715 -0.19472933 -0.052820515 -0.08225816 -0.0143279135 0.26858667 -0.14203411 0.008032076 -0.033261262 0.20213519 -0.23216203 -0.32363603 0.1208222 0.07135447 0.008049257 -0.09842928 -0.14864692 0.101945885 -0.10858326 -0.18508102 -0.20361438 0.2085715 0.10434525 0.016535938 -0.15853822 -0.2480377 0.22923279 -0.26176232 -0.19878732 0.058602147 0.29587606 -0.11947985 0.093730696 -0.044791274 -0.18676905 -0.054031763 0.1145105 -0.42674792 0.16299693 -0.25229344 0.13694008 -0.1449724 0.048558623 -0.30023456 0.1633368 -0.07727847 -0.12124164 0.1396999 -0.2936965 0.3269327 0.07670228 0.17129163 -0.030617714 0.093132846 -0.0334517 0.14762819 0.36261082 -0.07774961 -0.16543286 0.063827 -0.09022988 0.079472475 0.012943185 0.33002907 -0.11328555 0.012429541 0.104087435 0.5337197 -0.015843654 -0.07293865 -0.28971007 -0.023532277 0.22917084 -0.06987803 0.21174227 0.038843274 -0.020627772 0.12618533 -0.29590777 -0.0327595 0.011899605 0.2362636 -0.15060896 0.025212195 -0.16060579 -0.02597751 0.089944504 0.19462101 -0.02114651 0.30920628 0.2767844 -0.17547753 -0.07626268 0.05599833 -0.17961863 0.14962512 0.008925263 0.13477553 0.033680517 0.22217356 0.085294396 -0.08718543 0.36488816 0.027126899 0.13415682 0.40726715 -0.047740117 0.025984665 0.49688473 -0.18543886 -0.07391229 -0.17786899
right 0.2946722 -0.03733644 0.28237996 0.44592205 -0.4950794 -0.006790101 0.16856375 -0.096858256 -0.4126742 -0.2330339 -0.033951435 0.3878299 -0.035905004 -0.1466732 -0.0072655734 0.07480303 -0.46239436 0.15710369 -0.120182894 -0.18081246 -0.32158878 0.23878062 -0.19304048 0.03015161 -0.23293796 -0.14527412 -0.20062664 0.1178658 0.23849852 0.08508653 0.1030903 -0.103598006 0.080637224 0.26862812 -0.20148163 -0.16682589 -0.20549344 -0.1820794 0.059050664 -0.040464506 -0.16011739 -0.454783 0.08954752 -0.22514917 -0.346591 0.032622207 0.29757133 -0.066813655 0.17618474 0.115459785 0.08408328 0.40589082 0.2402631 -0.25189692 0.1991135 0.14169633 -0.0046167695 -0.15884405 0.13809869 -0.33314103 -0.1519637 -0.062061895 -0.1101168 0.13556902 -0.0033899478 0.09015401 0.16386738 -0.08725785 -0.2867473 0.0006611849 -0.16037841 0.24696827 0.23353592 -0.2509494 0.021564335 0.070423014 0.0439678 0.22493756 0.21435258 -0.03355172 -0.3178171 -0.0667579 -0.20134306 0.018825134 -0.032708395 0.36929384 0.13492225 -0.12536097 -0.1420334 -0.08238416 -0.003596346 0.11929452 -0.049336318 0.068209484 -0.19301704 0.0024177884 -0.15768205 -0.104475655 -0.12171735 -0.02991938 -0.08960021 -0.07979578 0.4373199 0.05846397 -0.16535921 0.1599399 0.008372917 -0.23832822 -0.09960503 -0.0103208395 -0.0741748 0.21710265 0.19054617 0.16472091 -0.315939 0.038657535 0.050396558 0.1348784 0.16741219 0.09082618 0.14137706 0.026548758 -0.018611517 0.06592829 0.230761 -0.020704499 -0.058010627 -0.017877733
now 0.035841823 -0.23067649 0.13969028 0.21936673 -0.23371495 -0.25009853 0.14482585 -0.1886543 -0.32756716 -0.02595971 -0.13073033 0.12482329 -0.16078064 -0.250279 -0.022334494 -0.17141019 -0.38166258 -0.1936463 -0.19028684 0.018942833 -0.3731355 0.03919986 0.09223935 0.08705785 0.01822851 -0.11326565 -0.10165155 -0.0145571185 0.23325323 -0.009585284 -0.026109539 -0.13342473 0.02098895 0.12597123 0.112443954 -0.13020825 -0.28704786 -0.05050246 0.113406844 0.12507583 -0.19566637 -0.31446004 0.08470741 0.033758134 -0.0750598 -0.081359774 0.25866544 0.19243959 0.2795499 0.16082333 0.13183188 0.20780195 0.15402664 -0.16922928 -0.031798687 0.17646155 0.051423457 -0.34179327 0.23560795 -0.5022439 0.0017037526 0.12443515 -0.03724099 -0.045207683 -0.15863943 0.35643888 0.2566839 -0.11018344 -0.14109582 0.09602644 0.121049225 0.22266346 0.44243684 -0.13981968 -0.29582167 0.24868113 -0.020799512 0.08227792 -0.0754916 -0.09426221 -0.16556197 -0.10513714 0.019464886 0.30446088 0.07921713 0.28675565 -0.097488515 -0.071590066 -0.14545454 -0.18847616 -0.021076033 -0.13638808 0.14416605 0.11214658 -0.4079913 0.16114667 -0.07501942 0.0689126 -0.21433516 -0.3351564 0.10303393 0.044366658 0.16395432 0.12423345 0.016647968 0.112498574 -0.047841985 -0.25741574 -0.12957358 0.27806872 -0.2318687 0.14348471 0.27263635 0.16569306 -0.28521582 -0.18150534 -0.09601029 0.21667348 0.29157984 -0.06725043 0.08362618 0.08124703 -0.12765841 0.12956637 0.33642876 -0.0151153235 -0.02850901 -0.20457523
from 0.2956459 -0.011288398 0.15449676 0.16228376 -0.19632562 -0.17045736 0.17203155 -0.18322992 -0.19181162 -0.27879426 -0.24439703 0.28849795 0.12873328 -0.06229364 -0.038802166 0.18627752 -0.40284124 -0.11691231 -0.24179141 -0.16056564 -0.32177576 0.07483233 -0.13052423 0.025921939 -0.14829542 0.004319931 -0.16546017 0.06756245 0.08844046 0.10219364 -0.18579751 0.04809908 -0.13222246 0.10207251 -0.18344139 -0.14484939 -0.21057664 -0.26441166 0.16127045 -0.07525956 -0.15036751 -0.39334154 0.06637879 -0.16152787 -0.22244148 0.060924616 0.16992477 0.10687801 0.24172969 0.08056607 0.12864015 0.26648656 0.08432958 -0.14035513 0.07313543 -0.094537616 -0.06312206 -0.04212998 0.16032705 -0.08756005 -0.018621163 -0.03980965 -0.1686611 -0.08874603 0.01659149 0.20700766 -0.06804655 0.09426474 -0.15801258 -0.031447086 0.20047937 0.27507222 0.060001604 -0.18426526 0.046955824 0.061172284 0.18009989 -0.008758409 0.033885498 -0.03774751 -0.26204896 -0.068863586 0.021386754 0.13733594 0.048273884 0.28046373 0.052674323 0.027997281 0.086477876 -0.029103808 0.0018284459 -0.21784294 -0.06217636 -0.08783554 -0.32546943 -0.008165162 -0.176533 0.08561968 -0.06317055 -0.055722125 -0.12120819 0.11168982 0.09390955 0.22093618 -0.06498188 -0.021843316 0.21866703 -0.063182905 -0.010009041 0.07180046 -0.009677803 0.08200247 0.107978135 0.04418067 0.03030013 -0.015955754 0.044757407 0.032397207 0.18520266 0.2063183 0.061825536 0.100863114 -0.0935634 0.14088881 0.10814999 -0.07230593 0.03323828 -0.088770404
me 0.07044113 -0.20079638 -0.09348472 0.14876743 -0.040409487 -0.1253853 0.21050723 0.016533446 0.16490042 -0.16324918 -0.24323784 0.0054719844 0.015822092 -0.5678423 -0.2832943 0.21992515 -0.23970954 0.29250196 0.044063188 0.09096008 -0.33554304 0.112676546 0.21216027 -0.041579496 -0.073459975 -0.010400478 0.17393905 0.055662643 0.067947924 0.27954376 0.016249798 0.17789128 0.14000075 -0.0070615034 0.095948 -0.11414404 -0.20917737 -0.095126085 0.16872145 -0.11773956 -0.03573127 -0.42249984 0.18599458 0.103986494 -0.0629468 -0.047734655 0.34297594 -0.13098182 0.026234955 0.3013286 -0.1742895 0.23137003 0.1965074 -0.2497423 -0.04145837 0.1716564 0.022442413 -0.15268803 0.41925552 -0.51336974 0.1272448 -0.124300376 -0.042730078 0.16759604 0.15250188 0.16155785 0.24436827 -0.21934769 0.12077204 0.003558527 -0.11536426 0.0016701235 0.18736179 -0.19540459 0.17219464 0.029800387 0.21896276 -0.030705277 -0.26351786 0.20738196 -0.05312815 0.018420395 0.07941227 0.27352735 -0.1210012 -0.117652245 -0.11143444 0.19094168 0.18311639 -0.30744666 0.13775498 -0.060070958 0.0034547066 0.040511414 -0.3719786 0.06477798 -0.014484547 -0.1250031 -0.14971562 0.0034878133 0.10232084 0.02840398 0.029980933 0.028990934 -0.21770255 0.17536075 -0.08683135 -0.27712178 0.051241744 -0.008518862 -0.13577786 0.095015965 0.14053412 0.043505117 -0.16686358 -0.04212495 0.13838111 0.0698767 0.073626734 -0.27262416 0.26596105 0.21446143 -0.21322684 0.07922066 0.29711315 -0.17797431 0.0150669515 -0.040744063
little -0.226123 0.26324257 0.225348 0.026949424 0.27188516 0.1157897 0.26995873 -0.06554126 -0.25900036 -0.054983933 -0.15976866 0.022926474 0.099388115 0.099921085 -0.1651925 -0.078876875 -0.18362589 0.11637266 0.052910537 -0.27277702 -0.2680991 0.08570232 -0.12573558 -0.0507481 0.27790326 0.116122514 -0.2697407 -0.2069704 0.21473552 0.23377389 -0.29902893 0.2105128 -0.09236062 0.12958924 -0.03309232 0.14487305 0.073186815 -0.12789834 0.15832168 -0.23760031 -0.39211577 -0.3257619 0.36339724 -0.4393114 -0.0501522 0.35023877 0.18783234 -0.0761842 0.2575264 0.26061943 0.20426148 -0.1711071 -0.08766064 -0.11723315 -0.07212075 0.043813948 0.0013400449 -0.27648893 0.20301354 -0.67389756 -0.27614087 0.0012145324 -0.4307796 0.17565916 -0.4063698 0.51432496 -0.115797326 0.026618056 -0.29149136 0.106270164 0.34692946 0.1551918 0.5128929 -0.21728706 0.07303159 -0.21235614 -0.20422164 0.15614094 -0.333161 0.2005143 -0.47680554 0.24322698 0.019839892 0.3599646 -0.23781256 0.07928258 -0.2509915 0.008751892 0.28402528 -0.024038587 0.056768764 -0.13871674 -0.20922685 -0.37288314 -0.55404246 -0.17899218 -0.12825349 0.23402359 -0.033214737 0.18661751 -0.09390073 -0.27302155 0.2094198 0.079164475 0.26215634 0.28477585 0.056210786 -0.1915579 0.017908616 -0.15805174 0.0570922 0.2680357 -0.22458361 -0.028643807 0.20740725 -0.044571076 -0.28337705 -0.0924242 0.11532851 0.21213557 0.099366106 0.45800474 -0.32336515 0.13816589 0.10707923 -0.13046183 -0.20082878 -0.24971992
